tree
version=v4
num_class=1
num_tree_per_iteration=1
label_index=0
max_feature_idx=7
objective=regression
feature_names=pickup_longitude pickup_latitude dropoff_longitude dropoff_latitude distancia hora_del_dia dia_de_la_semana mes
feature_infos=[-74.191154479980483:-73.716506958007812] [40.525161743164062:40.896381378173835] [-74.290626525878892:-73.702247619628892] [40.525508880615234:40.899765014648438] [0.00076954730246925449:44.742040187178972] [0:23] [0:6] [1:6]
tree_sizes=2904 2989 2994 3030 2981 2973 2992 2974 2992 3017 2983 2979 3006 2952 2999 2998 2999 3021 3015 2999 2985 2973 3012 3007 2960 3004 2999 3006 3006 3019 3020 3012 3033 3010 2989 3046 3026 2999 3016 3020 3045 3010 3043 3034 3049 3022 3038 2990 3024 3069 3027 3046 3079 3052 3024 3006 3066 3043 3027 3058 3058 3048 3088 3055 3041 3039 3086 3046 3055 3075 3039 3047 3050 3082 3004 3042 3013 3049 3010 3064 3029 3004 3067 3066 3011 3000 3022 3074 3041 3051 3066 3024 3028 2992 3037 3069 3041 3037 3058 3038 3050 3037 3061 3035 3069 3006 3069 3066 3065 3046 3041 3017 3033 3064 3035 3052 3047 3010 3051 3031 3044 3044 3030 3048 3037 3029 3053 3056 3032 3029 3055 3021 3077 3056 3064 3012 3072 2989 3035 3052 3055 2974 2962 2996 3005 2992 3038 3062 3091 2959 3011 3058 3067 3078 3036 3063 3081 3060 2981 3037 3003 2973 3065 3024 2975 3062 2940 2930 3030 3076 3005 2980 2955 3011 3080 3078 2974 2988 3014 2989 2934 3003 3007 3002 2955 2970 2955 2916 3049 3100 2942 3059 3022 3056 2966 2963 3049 2944 2952 2935 2947 2930 2987 2967 3074 2886 3020 3067 2991 3070 2910 2850 2921 2951 2922 2927 3069 2869 3054 2932 2902 3041 3002 2884 3051 3016 3045 2881 3064 2927 2902 3054 2906 2949 2920 2969 3038 2881 2944 2858 3021 3010 2937 3056 2853 3077 2866 3063 2812 3081 2994 2835 2972 2957 2942 2905 2927 3032 3048 2954 2883 2982 2880 2831 3099 2902 3027 2874 2993 3004 2803 2892 2941 2943 2986 2919 2994 2937 2935 2829 3046 3010 2955 2870 2969 2906 2863 2902 2936 3042 2897 2854 2940 2840 2941 2812 2869 2996 2921 2844 2820 2902 2978 2945 2998 2973 2906 2901 2959 2834 2985 3040 2865 2903 2985 2852 2874 2793 2822 3026 2872 2925 3031 3021 3064 2964 3018 2879 3065 3015 2986 2951 2830 3007 3017 2905 2877 2826 2831 3011 3000 3066 2908 2895 3007 2918 3013 2897 2947 2818 2907 2906 2778 2855 2816 2879 2871 2869 3017 2991 2853 3039 2919 3002 3027 2882 2932 3002 2928 3069 2923 2813 2844 3037 2918 3040 2878 2782 2853 2911 2867 2894 3076 3039 3069 3051 2973 2813 2869 3085 2922 2879 2823 2795 2893 2808 2885 3004 3006 2919 2812 3067 2992 2886 2811 2849 2791 3048 2752 2880 2781 2921 2931 3027 3004 2927 2906 3036 2809 2833 2950 3039 2856 2822 2894 3002 2911 2921 3014 2992 2952 2996 2927 2888 2894 2938 2873 2763 2910 2978 3042 2883 3028 2989 2895 2905 2935 2825 2784 3069 2966 2839 2993 2970 2850 2823 3001 2997 2866 2956 2947 2787 2852 2864 2986 2864 2938 2882 2835 2890 2799 2905 2848 2851 2991 2863 2833 2994 3060 2972 2831 2994 2800 3077 2882 2965 3035 2835 2803 2974 2815 2928 3020 3038 2766 3021 2870 3035 2951 3042 2824 2885 2842 3081 2894 2808 2839 2775 2938 2834 3049 3006 3080 2816 2834 2835 2824 2800 2872 3014 3058 2930 2986 3046 2845 2815 2858 2944 2880 3033 2800 2949 2922 2934 2822 2951 2851 2851 2894 2797 2985 3060 2823 2795 3040 2791 2809 3027 2942 2812 2965 2835 2967 3105 2788 2803 2876 2954 2943 2814 3049 2966 3034 2973 3098 2890 2894 3073 2795 3063 2832 3093 2793 2847 3086 2989 2804 2814 2883 2852 3022 2971 2842 3075 2827 2872 2952 2798 2820 2799 2826 2992 2977 3008 3005 2864 3027 2852 3015 2895 2837 2851 3005 2820 3043 2833 2918 3053 3077 2875 2896 2800 2773 2842 2852 2956 3059 2739 2815 3027 2838 2863 2846 2978 3025 2829 3024 3030 3036 2902 3027 2771 3001 3075 3016 2818 2983 3043 2809 2985 3053 2982 2906 2788 2820 3029 3009 2798 2933 2999 2809 2837 3059 3030 3072 2776 2942 2783 2985 2980 3025 3057 3031 2934 2773 3000 3050 2998 2999 2792 2811 2899 2985 3021 2842 2795 3028 2936 2860 2945 2998 3035 3018 2783 2811 3019 2810 3035 2831 3007 2935 3006 2912 2836 3023 2827 2762 3080 2856 3032 2921 3004 3038 2979 3076 3035 2932 2859 3064 2774 2868 2853 2751 2876 3014 2817 2846 2965 2879 2910 2810 3049 3026 2991 3047 2975 2812 2866 3029 3010 2936 2978 3067 2957 2775 2776 2775 3004 3061 2932 3001 2787 2786 2815 3009 2957 3013 2948 2971 2760 3005 2973 2906 2902 2827 2964 2863 2963 3063 3016 3021 2750 2911 2956 2818 3021 3018 3066 3035 2763 2751 2896 3044 2811 3012 2767 2760 3030 2860 2938 3068 2935 2762 2963 2781 2795 3032 2786 2789 2769 2981 2946 2764 2900 2956 2902 2931 2964 2872 2907 3010 2905 2996 2771 2899 2912 2795 2862 2801 2803 2760 2842 2931 2773 2973 3077 2960 2760 2771 2872 2889 2842 2866 2886 2891 2810 2858 3033 2870 2773 2787 2822 2958 2791 2870 2831 2773 2883 2872 2990 2898 2808 2772 2862 2909 2851 2797 2777 2945 2771 2809 2959 2741 2783 2911 3017 2807 3058 3022 3009 2759 3016 3028 3043 2920 3041 3000 2955 3061 2940 3046 3049 3010 2761 2838 2986 2786 3072 2991 3008 3023 3025 3033 2959 2827 3026 3079 2987 3095 2823 3005 2771 3033 3040 3076 2780 2960 2997 2993 2885 2811 2796 3053 3022 2999 2957 3023 2984 3021 3045 2996 3048 2928 3081 2808 3022 3031 2837 2944 3006 3025 2813 2949 2797 3004 2976 3057 2954 2775 2811 3021 2950 2976 3007 2800 3075 2888 3101 2813 2790 2962 2965 3001 2771 2918 3001 2912 3020 2862 2792 2952 2767 2822 2860 3015 3031 3039 2921 2764 2794 3054 3004 2768 2898 2813 2796 2889 2955 2921 3005 2954 2956 2918 2963 2978 2926 2857 2965 2985 2799 2962 2841 2963 3005 2956 2832 3010 2922 2993 2901 2749 2786 3007 2793 2772 2842 2760 2915 2976 2788

Tree=0
num_leaves=31
num_cat=0
split_feature=4 4 4 4 4 4 5 5 5 4 5 5 5 5 0 5 5 5 5 5 0 5 2 4 4 7 4 4 4 4
split_gain=4.85776e+07 1.07945e+07 8.48651e+06 2.4603e+06 1.22499e+06 1.21864e+06 984109 1.06741e+06 585202 577175 555021 519224 471531 355591 362767 351521 333012 313214 268973 195318 187420 182018 170645 155239 142013 133765 126247 124554 122375 100843
threshold=4.4848969772238112 13.727666932012378 1.9332650216061176 8.2422460028713953 3.0045937965946328 1.1893170585130817 5.5000000000000009 18.500000000000004 7.5000000000000009 17.777822853791069 6.5000000000000009 18.500000000000004 7.5000000000000009 13.500000000000002 -73.86260604858397 7.5000000000000009 18.500000000000004 18.500000000000004 18.500000000000004 7.5000000000000009 -73.897438049316392 13.500000000000002 -73.977695465087876 1.5198779408298728 0.90628131703340087 4.5000000000000009 5.8502161017383392 2.3901629106597153 5.9678120605648646 5.9678120605648646
decision_type=2 2 2 2 2 2 2 2 2 2 2 2 2 2 2 2 2 2 2 2 2 2 2 2 2 2 2 2 2 2
left_child=2 3 5 8 15 24 -3 9 29 -8 -5 20 -6 14 -11 -4 28 -14 27 -7 21 -12 -22 -21 -1 -15 -18 -17 -10 -2
right_child=1 6 4 10 12 19 7 -9 16 13 11 -13 17 25 -16 18 26 -19 -20 23 22 -23 -24 -25 -26 -27 -28 -29 -30 -31
leaf_value=13.573481027990713 14.11458755347406 14.806234184786922 13.79411391295999 14.492769931474735 13.946195994955209 13.660072209287554 15.353684761950667 15.138003032492092 14.478510604761174 15.328089667026218 14.745289109827072 14.649109940564596 14.251356771638982 16.012648595747148 16.02383023209152 13.9659638385797 14.263715203113302 14.076972479985722 13.884743728406983 13.743945438106175 15.31247348079089 15.098100196344136 14.941486344767005 13.832959244493427 13.652653864842968 16.438521771086265 14.44421182532734 14.071943152159779 14.636794175089136 14.2977015381119
leaf_weight=130491 15586 4765 33642 11750 26210 34123 5902 9526 30506 3624 8849 15557 65348 5075 3879 57760 20847 42493 59019 95316 7172 6229 5459 100759 100077 2896 18098 53314 20362 14526
leaf_count=130491 15586 4765 33642 11750 26210 34123 5902 9526 30506 3624 8849 15557 65348 5075 3879 57760 20847 42493 59019 95316 7172 6229 5459 100759 100077 2896 18098 53314 20362 14526
internal_value=14.0068 14.6823 13.8287 14.5207 14.019 13.6891 15.4751 15.5782 14.3937 15.7744 14.7975 14.8803 14.1364 15.9348 15.6878 13.9418 14.4576 14.1826 13.971 13.7705 15.0101 14.891 15.1521 13.7897 13.6078 16.1674 14.3476 14.0168 14.5419 14.2029
internal_weight=1.00916e+06 210608 798552 174941 337786 460766 35667 30902 119925 21376 55016 43266 134051 15474 7503 203735 89813 107841 170093 230198 27709 15078 12631 196075 230568 7971 38945 111074 50868 30112
internal_count=1009160 210608 798552 174941 337786 460766 35667 30902 119925 21376 55016 43266 134051 15474 7503 203735 89813 107841 170093 230198 27709 15078 12631 196075 230568 7971 38945 111074 50868 30112
is_linear=0
shrinkage=1


Tree=1
num_leaves=31
num_cat=0
split_feature=4 4 4 4 4 4 5 5 4 5 5 5 5 6 5 6 5 5 6 6 5 6 5 3 5 5 3 3 5 4
split_gain=4.38486e+07 9.40698e+06 8.03143e+06 2.06742e+06 1.23301e+06 1.10089e+06 888158 963339 520900 500907 498532 468600 449769 446733 325478 310873 298361 281212 259113 251084 249356 271248 212902 210033 204769 183165 315790 159000 147074 143336
threshold=4.6208964489003854 13.727666932012378 1.9332650216061176 8.2422460028713953 3.0345549720390665 1.2121837810844702 5.5000000000000009 18.500000000000004 17.777822853791069 6.5000000000000009 7.5000000000000009 18.500000000000004 7.5000000000000009 4.5000000000000009 7.5000000000000009 4.5000000000000009 19.500000000000004 18.500000000000004 4.5000000000000009 4.5000000000000009 18.500000000000004 4.5000000000000009 11.500000000000002 40.770185470581062 7.5000000000000009 13.500000000000002 40.697629928588874 40.774198532104499 18.500000000000004 0.90628131703340087
decision_type=2 2 2 2 2 2 2 2 2 2 2 2 2 2 2 2 2 2 2 2 2 2 2 2 2 2 2 2 2 2
left_child=2 3 5 10 14 29 -3 8 -8 -5 -2 15 -6 25 -4 -11 19 18 -12 -14 21 27 -15 24 -7 26 -10 -16 -26 -1
right_child=1 6 4 9 12 23 7 -9 13 11 17 -13 16 22 20 -17 -18 -19 -20 -21 -22 -23 -24 -25 28 -27 -28 -29 -30 -31
leaf_value=-0.41166142682934925 0.19559103914830644 0.7594540777497174 -0.20059281963687964 0.46166303710140633 -0.049349318819665242 -0.32013130846005655 1.2795321371259094 1.0746344960084857 1.4006864568406341 1.046818770593628 0.59790099220485604 0.61018604152698919 0.2936676754891685 0.87554162978585348 0.098308523222381539 0.65384572137779806 0.057028409129487881 0.33375244718867181 0.34502859493126858 0.096187445623965195 -0.11435927635291054 -0.11063518261975734 1.633539410540201 -0.31575686669958231 -0.13821290564208721 2.2026038013673213 2.1610046528578644 -0.070160590404525894 -0.24492907628841076 -0.33382597459738889
leaf_weight=130491 28342 4765 34377 11750 27245 28145 5902 9526 2629 21100 32408 15557 52594 1323 62659 6609 35175 36330 14737 23194 60223 32390 3090 46843 99249 5590 2842 18037 47853 108185
leaf_count=130491 28342 4765 34377 11750 27245 28145 5902 9526 2629 21100 32408 15557 52594 1323 62659 6609 35175 36330 14737 23194 60223 32390 3090 46843 99249 5590 2842 18037 47853 108185
internal_value=1.93738e-10 0.65781 -0.165133 0.50024 0.0169581 -0.301828 1.39485 1.49283 1.67919 0.75117 0.376777 0.829793 0.132681 1.83162 -0.0600516 0.953089 0.177375 0.438295 0.518856 0.233231 -0.0321744 0.0115925 1.40629 -0.221708 -0.196569 2.00131 1.79565 0.0606527 -0.172928 -0.376381
internal_weight=1.00916e+06 202500 806660 166833 345894 460766 35667 30902 21376 55016 111817 43266 138208 15474 207686 27709 110963 83475 47145 75788 173309 113086 4413 222090 175247 11061 5471 80696 147102 238676
internal_count=1009160 202500 806660 166833 345894 460766 35667 30902 21376 55016 111817 43266 138208 15474 207686 27709 110963 83475 47145 75788 173309 113086 4413 222090 175247 11061 5471 80696 147102 238676
is_linear=0
shrinkage=0.05


Tree=2
num_leaves=31
num_cat=0
split_feature=0 2 3 2 3 0 2 3 0 0 0 2 5 0 5 5 5 5 0 2 2 0 6 5 3 0 0 2 2 3
split_gain=1.80614e+07 9.72137e+06 3.33007e+06 2.03644e+06 1.55242e+06 1.15547e+06 845563 665385 740114 644635 617445 601812 590211 511807 453054 439576 437823 452560 367633 340608 310468 356772 255033 380778 253316 791823 367354 737707 336869 252368
threshold=-73.874469757080064 -73.890369415283203 40.702114105224616 -73.957294464111314 40.680442810058601 -73.86260604858397 -73.936008453369126 40.724233627319343 -74.007114410400376 -73.98687362670897 -73.954128265380831 -73.991596221923814 12.500000000000002 -73.921844482421861 7.5000000000000009 18.500000000000004 18.500000000000004 5.5000000000000009 -73.957424163818345 -74.017665863037095 -73.903980255126939 -73.86260604858397 4.5000000000000009 18.500000000000004 40.768442153930671 -73.983676910400376 -73.963573455810533 -73.977512359619126 -73.969684600830064 40.675365447998054
decision_type=2 2 2 2 2 2 2 2 2 2 2 2 2 2 2 2 2 2 2 2 2 2 2 2 2 2 2 2 2 2
left_child=1 2 19 5 12 15 7 9 11 -4 -8 -9 -3 14 -10 -2 17 -7 -6 -1 21 -5 23 24 26 28 -16 -28 -26 -21
right_child=3 4 6 20 18 16 10 8 13 -11 -12 -13 -14 -15 22 -17 -18 -19 -20 29 -22 -23 -24 -25 25 -27 27 -29 -30 -31
leaf_value=0.93250045859762598 1.092210233567986 0.98508209807400116 -0.073998603682799105 0.3863260542819737 0.7393207493696764 0.79172394744860319 0.38344453169276249 -0.1294975466338483 -0.21647437106312242 0.19619727928731359 -0.18122142406636746 0.31840939426437703 1.8452679387260416 0.53342323432209016 -0.0553818283088654 0.52362370963806371 1.1345050482927774 1.8580346879153322 0.17197311513555388 0.56076894823875312 0.25497460222521068 1.0339012351759636 -0.16358779538970672 -0.15598887929089081 -0.015924350584704577 -0.18436008567422235 0.47301823241786684 -0.049890474093763452 0.47817342731122769 0.26204755652128736
leaf_weight=2792 11331 3592 60159 4308 15991 1128 15698 13144 119795 34870 7000 17463 4483 2942 183887 4856 4503 8443 3476 10369 6915 4201 165908 152757 7094 83574 10421 19120 6715 22225
leaf_count=2792 11331 3592 60159 4308 15991 1128 15698 13144 119795 34870 7000 17463 4483 2942 183887 4856 4503 8443 3476 10369 6915 4201 165908 152757 7094 83574 10421 19120 6715 22225
internal_value=-1.21671e-09 -0.0460609 -0.073306 0.971403 0.879784 1.20973 -0.0920015 -0.0997922 -0.114959 0.0251472 0.209303 0.126058 1.46263 -0.124766 -0.12735 0.921638 1.54108 1.73236 0.638016 0.40248 0.503816 0.706042 -0.110389 -0.0913495 -0.0595807 -0.126405 -0.0290898 0.134573 0.224344 0.357079
internal_weight=1.00916e+06 963475 935933 45685 27542 30261 900547 877849 782820 95029 22698 30607 8075 752213 749271 16187 14074 9571 19467 35386 15424 8509 629476 463568 310811 97383 213428 29541 13809 32594
internal_count=1009160 963475 935933 45685 27542 30261 900547 877849 782820 95029 22698 30607 8075 752213 749271 16187 14074 9571 19467 35386 15424 8509 629476 463568 310811 97383 213428 29541 13809 32594
is_linear=0
shrinkage=0.05


Tree=3
num_leaves=31
num_cat=0
split_feature=1 2 3 1 3 1 2 2 5 3 1 1 3 5 5 5 5 6 3 1 1 3 1 1 5 2 1 1 3 1
split_gain=1.10598e+07 7.83252e+06 3.46917e+06 1.68521e+06 1.53515e+06 1.22782e+06 1.17966e+06 687586 704201 615015 1.88061e+06 1.03312e+06 764462 499868 351876 508236 334678 490365 338780 2.24492e+06 1.53861e+06 663101 261141 227579 223720 208568 185706 179883 244618 167865
threshold=40.648580551147468 -73.890369415283203 40.702114105224616 40.73083686828614 40.668903350830085 40.677452087402351 -73.932689666748033 -73.938205718994112 7.5000000000000009 40.723611831665046 40.747838973999031 40.72125434875489 40.747659683227546 12.500000000000002 19.500000000000004 5.5000000000000009 18.500000000000004 4.5000000000000009 40.767515182495124 40.768690109252937 40.754621505737312 40.759073257446296 40.703218460083015 40.734750747680671 10.500000000000002 -73.979701995849581 40.742952346801765 40.774251937866218 40.787065505981452 40.761850357055671
decision_type=2 2 2 2 2 2 2 2 2 2 2 2 2 2 2 2 2 2 2 2 2 2 2 2 2 2 2 2 2 2
left_child=6 2 3 22 13 -4 14 8 -7 10 23 12 -11 -3 15 -1 17 18 19 -13 -20 25 -2 -10 -6 -21 -9 28 -22 -12
right_child=1 4 5 -5 24 7 -8 26 9 11 29 16 -14 -15 -16 -17 -18 -19 20 21 27 -23 -24 -25 -26 -27 -28 -29 -30 -31
leaf_value=0.66002190643217851 -0.14313913564168745 0.90545629325275323 1.2079337974319209 0.76561627566115875 0.36895371354833695 -0.1792921968763434 0.48131644848632016 0.42119262520715506 -0.17050962661541796 -0.031498209574267855 0.32178256183583742 -0.076529025812503121 0.43242982005937525 1.6872695966985607 0.97542803602386696 1.6518124435751553 -0.14072327092256154 -0.15192961830138405 0.42686811687546372 0.64874394409590164 -0.15331040039580987 0.12460669663605009 0.23840085671833888 0.065254430433180841 0.68883736724067779 0.33886438623929188 0.10697696997783852 -0.24338580381381569 0.17489803662859488 0.58469307238283841
leaf_weight=1489 7204 3636 1882 18333 9754 144075 4846 6020 34770 18729 14538 171506 16885 4671 4022 9749 205868 114560 11975 12794 36701 20834 11881 14506 12433 9434 21483 47441 6716 10425
leaf_count=1489 7204 3636 1882 18333 9754 144075 4846 6020 34770 18729 14538 171506 16885 4671 4022 9749 205868 114560 11975 12794 36701 20834 11881 14506 12433 9434 21483 47441 6716 10425
internal_value=2.89667e-10 -0.0236003 -0.0486965 0.423254 0.765284 -0.0678677 1.16094 -0.0704797 -0.0780738 -0.0585695 0.078011 -0.0736259 0.188455 1.34507 1.37677 1.5204 -0.0882595 -0.0632559 -0.0312507 0.0045102 -0.105868 0.327271 0.0943813 -0.101105 0.548208 0.517225 0.175754 -0.176082 -0.102541 0.431579
internal_weight=1.00916e+06 989054 958560 37418 30494 921142 20106 919260 891757 747682 74239 673443 35614 8307 15260 11238 637829 431961 317401 214568 102833 43062 19085 49276 22187 22228 27503 90858 43417 24963
internal_count=1009160 989054 958560 37418 30494 921142 20106 919260 891757 747682 74239 673443 35614 8307 15260 11238 637829 431961 317401 214568 102833 43062 19085 49276 22187 22228 27503 90858 43417 24963
is_linear=0
shrinkage=0.05


Tree=4
num_leaves=31
num_cat=0
split_feature=4 4 4 4 4 4 4 5 5 5 5 5 5 5 5 5 1 5 3 3 5 5 5 5 3 4 7 4 4 5
split_gain=3.47913e+07 7.66424e+06 5.98592e+06 1.7345e+06 903237 830763 768386 503616 518498 471666 396950 346925 338786 269538 254992 246765 246476 221939 198810 163819 160965 150521 137683 188270 130750 122167 119993 117667 114329 107084
threshold=4.1776356989755401 12.852979923056816 1.7979722259882267 7.990509478357775 2.7042559980246037 17.777822853791069 1.1105623776003648 5.5000000000000009 18.500000000000004 7.5000000000000009 6.5000000000000009 7.5000000000000009 18.500000000000004 18.500000000000004 13.500000000000002 19.500000000000004 40.677452087402351 7.5000000000000009 40.774198532104499 40.769800186157234 19.500000000000004 7.5000000000000009 6.5000000000000009 19.500000000000004 40.778501510620124 9.4071845743895057 4.5000000000000009 5.5349368327160215 5.6350715167795444 18.500000000000004
decision_type=2 2 2 2 2 2 2 2 2 2 2 2 2 2 2 2 2 2 2 2 2 2 2 2 2 2 2 2 2 2
left_child=2 3 6 9 17 22 -1 -7 14 -2 -5 -6 25 27 16 24 -9 -4 20 21 -19 -8 -3 -24 -13 -12 -16 -11 -15 -23
right_child=1 5 4 10 11 7 19 8 -10 13 12 15 -14 28 26 -17 -18 18 -20 -21 -22 29 23 -25 -26 -27 -28 -29 -30 -31
leaf_value=-0.3569805937260398 0.14839899690600852 0.61261859773560201 -0.20205826101124524 0.38932828567259148 -0.072542395298603832 0.69886987193237859 -0.30648989967464213 1.6578542561766121 1.0339525486293593 0.37259472035238772 0.69620820723727839 0.19009182388229237 0.52894352793076205 0.20119786829502995 1.6401425914200656 0.011472134576801638 1.0843913283199071 0.0055683174495836912 -0.16283754972572195 -0.30574848693534362 -0.12020317938398491 -0.15076104200207396 1.1114662133805115 0.69956894274572312 0.030098044521888297 0.90961548952682036 2.043496870216579 0.51521397763754639 0.36292253756814685 -0.2418147883409506
leaf_weight=202242 33198 3468 31191 11916 29858 2577 28022 3875 5757 32828 11505 73900 15581 24917 5075 38830 3628 94941 34725 46521 34751 100207 8043 4235 15437 16078 2896 25851 19465 47642
leaf_count=202242 33198 3468 31191 11916 29858 2577 28022 3875 5757 32828 11505 73900 15581 24917 5075 38830 3628 94941 34725 46521 34751 100207 8043 4235 15437 16078 2896 25851 19465 47642
internal_value=-1.81963e-12 0.538995 -0.159907 0.408018 -0.00795613 1.17258 -0.28645 1.35893 1.43905 0.312305 0.644796 0.0809486 0.715322 0.365103 1.58977 0.116706 1.38056 -0.0797792 -0.0565821 -0.22231 -0.0281322 -0.200239 0.890814 0.969392 0.162446 0.820602 1.78669 0.435426 0.272127 -0.180102
internal_weight=1.00916e+06 230893 778267 191339 353633 39554 424634 23808 21231 136259 55080 158025 43164 103061 15474 128167 7503 195608 164417 222392 129692 175871 15746 12278 89337 27583 7971 58679 44382 147849
internal_count=1009160 230893 778267 191339 353633 39554 424634 23808 21231 136259 55080 158025 43164 103061 15474 128167 7503 195608 164417 222392 129692 175871 15746 12278 89337 27583 7971 58679 44382 147849
is_linear=0
shrinkage=0.05


Tree=5
num_leaves=31
num_cat=0
split_feature=4 4 4 4 4 4 4 5 5 5 5 6 5 5 6 5 5 5 6 6 5 5 3 5 6 3 0 5 5 5
split_gain=3.14055e+07 6.69773e+06 5.64299e+06 1.46928e+06 900556 756302 693924 406575 370080 406004 358247 357516 321420 305754 247619 233460 220341 214877 203902 193980 193336 251389 190485 153382 154178 142490 140515 137735 134955 129895
threshold=4.29423298119604 12.852979923056816 1.7979722259882267 7.990509478357775 2.7798554102118826 19.357400093295251 1.1441538212273528 7.5000000000000009 5.5000000000000009 18.500000000000004 6.5000000000000009 4.5000000000000009 7.5000000000000009 18.500000000000004 4.5000000000000009 19.500000000000004 19.500000000000004 7.5000000000000009 4.5000000000000009 4.5000000000000009 6.5000000000000009 18.500000000000004 40.77368354797364 19.500000000000004 4.5000000000000009 40.76947212219239 -73.897438049316392 11.500000000000002 13.500000000000002 7.5000000000000009
decision_type=2 2 2 2 2 2 2 2 2 2 2 2 2 2 2 2 2 2 2 2 2 2 2 2 2 2 2 2 2 2
left_child=2 3 6 7 17 20 -1 -2 -7 11 -5 -10 -6 14 26 19 18 -4 -14 -9 -3 28 23 24 -19 29 -12 -13 -22 -8
right_child=1 5 4 10 12 8 25 15 9 -11 13 27 16 -15 -16 -17 -18 22 -20 -21 21 -23 -24 -25 -26 -27 -28 -29 -30 -31
leaf_value=-0.33546275572095502 0.14796184023664613 0.59740888665017422 -0.18760391669099433 0.36986187190697017 -0.060591710048711493 0.68423481739085656 -0.28768955194453733 0.47202994829154971 1.7139113146644551 1.0073993624243349 0.74532947769918956 0.66026582066621464 0.21799956212972404 0.50249635835700268 0.51197459816075253 0.25084942059721999 0.023257255850544618 0.049771958115723658 0.050755202573568109 0.28074944625736714 0.9438049407061806 0.72625299446917002 -0.14794074055707748 -0.10877382082630588 -0.088576213437645615 -0.28653097137424716 1.0050633548818853 1.3296665598750341 1.3212876455658591 -0.16682481535680915
leaf_weight=214260 31554 4263 33342 11916 29351 1978 26464 42796 9337 4712 11451 1086 60351 15581 6582 34720 38165 71478 26109 19201 4594 6070 38070 36718 28037 44979 9550 2628 4886 138931
leaf_count=214260 31554 4263 33342 11916 29351 1978 26464 42796 9337 4712 11451 1086 60351 15581 6582 34720 38165 71478 26109 19201 4594 6070 38070 36718 28037 44979 9550 2628 4886 138931
internal_value=3.03024e-10 0.523859 -0.148515 0.396559 -0.00336296 1.11395 -0.272128 0.303809 1.33299 1.40523 0.612556 1.54886 0.088266 0.679556 0.779572 0.354655 0.123324 -0.071309 0.167495 0.412789 0.895713 0.977492 -0.0490633 -0.0214322 0.0107942 -0.207623 0.863441 1.13393 1.13836 -0.186164
internal_weight=1.00916e+06 222905 786255 183351 361621 39554 424634 128271 19741 17763 55080 13051 153976 43164 27583 96717 124625 207645 86460 61997 19813 15550 174303 136233 99515 210374 21001 3714 9480 165395
internal_count=1009160 222905 786255 183351 361621 39554 424634 128271 19741 17763 55080 13051 153976 43164 27583 96717 124625 207645 86460 61997 19813 15550 174303 136233 99515 210374 21001 3714 9480 165395
is_linear=0
shrinkage=0.05


Tree=6
num_leaves=31
num_cat=0
split_feature=4 4 4 4 4 4 4 3 3 3 4 3 3 4 3 4 7 7 4 4 3 2 4 4 4 4 7 2 2 3
split_gain=2.83845e+07 6.71133e+06 4.49936e+06 1.7705e+06 793319 597899 459095 238173 160641 143426 131693 123779 116744 110387 98740 102860 83957.7 83227.1 83195.9 77499.3 72575.1 71728 68140 57686.5 53666.9 53416.3 48522.9 37783.8 42875.5 37536.6
threshold=3.9660426836235163 9.4071845743895057 1.661981214061387 17.777822853791069 2.5381772806972172 5.9678120605648646 1.0434798520759541 40.773363113403327 40.777265548706062 40.774198532104499 20.499488885133278 40.769800186157234 40.791402816772468 3.2644527673405883 40.810325622558601 7.2925460390888093 3.5000000000000004 4.5000000000000009 0.19086238698898611 2.1108174652464542 40.767854690551765 -73.975238800048814 1.3513350357880374 4.910591262412713 12.003981544938233 0.78587937541706265 4.5000000000000009 -74.003765106201158 -73.86360549926755 40.747659683227546
decision_type=2 2 2 2 2 2 2 2 2 2 2 2 2 2 2 2 2 2 2 2 2 2 2 2 2 2 2 2 2 2
left_child=2 5 6 7 9 12 18 17 13 19 26 22 23 -6 15 -7 -12 24 -1 -4 25 -18 -8 -2 -3 -20 -5 -17 -29 -24
right_child=1 3 4 10 8 14 11 -9 -10 -11 16 -13 -14 -15 -16 27 21 -19 20 -21 -22 -23 29 -25 -26 -27 -28 28 -30 -31
leaf_value=-0.099189884014562635 0.20761874593332205 0.64281531739175002 -0.10246711025391578 1.0328944530617905 0.038792568496909742 0.36826210990815117 -0.23108967861630775 0.5194012721375173 -0.053227242148117408 -0.1791207610661677 1.2049221195022357 -0.29604582380983885 0.060120699432546068 0.12962444214623517 0.21865043833812614 0.33429149006788322 1.6461156286767045 0.87492310378719496 -0.34846921407978876 -0.03332733879280516 -0.38867302220868138 1.3081331508271832 -0.20456846728660688 0.2868854129481882 0.80006047171224015 -0.28398738161310083 1.2422593470687699 0.52544349684269853 0.22414591564659886 -0.1348348351100738
leaf_weight=3830 54557 12435 96998 7511 86115 33272 86407 13264 30075 39896 5627 42743 9858 54693 6052 3322 3026 12028 62782 69622 45988 3262 35430 39622 9627 65756 4382 27363 1234 42383
leaf_count=3830 54557 12435 96998 7511 86115 33272 86407 13264 30075 39896 5627 42743 9858 54693 6052 3322 3026 12028 62782 69622 45988 3262 35430 39622 9627 65756 4382 27363 1234 42383
internal_value=5.95434e-10 0.466504 -0.150732 0.876009 -0.0280241 0.300249 -0.270918 0.69917 0.0516691 -0.0939667 1.22774 -0.220253 0.223831 0.0740737 0.411843 0.429778 1.34523 0.769116 -0.329709 -0.0735771 -0.334768 1.47078 -0.200526 0.240967 0.711431 -0.315482 1.11004 0.493901 0.512442 -0.166586
internal_weight=1.00916e+06 246442 762718 71162 377399 175280 385319 47354 170883 206516 23808 206963 104037 140808 71243 65191 11915 34090 178356 166620 174526 6288 164220 94179 22062 128538 11893 31919 28597 77813
internal_count=1009160 246442 762718 71162 377399 175280 385319 47354 170883 206516 23808 206963 104037 140808 71243 65191 11915 34090 178356 166620 174526 6288 164220 94179 22062 128538 11893 31919 28597 77813
is_linear=0
shrinkage=0.05


Tree=7
num_leaves=31
num_cat=0
split_feature=4 4 4 4 4 4 4 5 5 6 5 5 5 5 6 5 5 6 5 5 5 3 6 5 6 5 0 5 5 6
split_gain=2.56177e+07 5.95165e+06 4.14569e+06 1.59787e+06 731208 519019 429112 411059 423462 368344 336328 320503 346031 291604 238747 228457 217787 202698 174104 162809 149024 148046 141744 138002 137806 124673 235179 132169 122994 142986
threshold=4.0164249595865718 9.4071845743895057 1.6759565115257928 17.777822853791069 2.4946540761901788 6.2043648119754975 1.0537618750309201 5.5000000000000009 18.500000000000004 4.5000000000000009 6.5000000000000009 6.5000000000000009 18.500000000000004 7.5000000000000009 4.5000000000000009 7.5000000000000009 19.500000000000004 4.5000000000000009 19.500000000000004 7.5000000000000009 11.500000000000002 40.771833419799812 4.5000000000000009 18.500000000000004 4.5000000000000009 13.500000000000002 -73.897438049316392 8.5000000000000018 18.500000000000004 4.5000000000000009
decision_type=2 2 2 2 2 2 2 2 2 2 2 2 2 2 2 2 2 2 2 2 2 2 2 2 2 2 2 2 2 2
left_child=2 5 6 11 19 10 -1 -5 9 25 -2 -3 14 -6 -13 -7 17 -15 22 -4 -11 28 -12 24 -17 26 -9 -28 29 -21
right_child=1 3 4 7 13 15 -8 8 -10 20 18 12 -14 16 -16 23 -18 -19 -20 21 -22 -23 -24 -25 -26 -27 27 -29 -30 -31
leaf_value=-0.31215682230148345 0.037689182595777027 0.41435669543050324 -0.19710306675586806 0.57001967379236917 -0.084959465627456404 0.24781932361369008 -0.20695742790408259 1.0045967086542413 0.87263886697948845 0.54467747244724862 0.3641008602324533 0.94120105441721147 0.53469161372294127 0.16276548673977115 0.57020270746056478 0.60711980735287441 -0.014666843203736075 0.010527594024589266 0.16331828593204886 0.031312686946570592 1.1788487455209047 -0.15750715517247627 0.19491717504873662 0.3601142851404347 0.3531281900671821 1.6950937983320362 2.0807357206396908 1.394702304582131 -0.11374018867583631 -0.11503963560670766
leaf_weight=182113 20216 10098 30491 2577 33516 17474 207253 2520 5757 1323 41170 17574 13925 73652 5757 18846 44305 31096 28865 59772 3090 38204 17704 19695 7452 5590 1151 1800 43020 23154
leaf_count=182113 20216 10098 30491 2577 33516 17474 207253 2520 5757 1323 41170 17574 13925 73652 5757 18846 44305 31096 28865 59772 3090 38204 17704 19695 7452 5590 1151 1800 43020 23154
internal_value=2.04032e-10 0.447823 -0.141714 0.832208 -0.0235792 0.288254 -0.256161 1.16635 1.23873 1.37494 0.221546 0.664212 0.731933 0.0482998 0.849656 0.401723 0.0782645 0.117571 0.263908 -0.0910003 0.988727 -0.0712916 0.313226 0.460195 0.535147 1.52903 1.35934 1.66228 -0.0451393 -0.00955075
internal_weight=1.00916e+06 242584 766576 71162 377210 171422 389366 23808 21231 15474 107955 47354 37256 182569 23331 63467 149053 104748 87739 194641 4413 164150 58874 45993 26298 11061 5471 2951 125946 82926
internal_count=1009160 242584 766576 71162 377210 171422 389366 23808 21231 15474 107955 47354 37256 182569 23331 63467 149053 104748 87739 194641 4413 164150 58874 45993 26298 11061 5471 2951 125946 82926
is_linear=0
shrinkage=0.05


Tree=8
num_leaves=31
num_cat=0
split_feature=4 4 4 4 4 4 4 5 5 5 6 5 5 5 5 6 5 5 6 5 5 6 5 6 4 3 5 5 5 6
split_gain=2.31447e+07 4.88878e+06 4.2748e+06 1.03688e+06 766772 548786 498791 327228 301565 332288 292051 290044 248802 217729 209142 202477 163380 156522 162770 155789 205781 151435 145123 143024 138189 120566 129473 112066 104960 104238
threshold=4.3569977883279138 12.852979923056816 2.0101037388739766 7.990509478357775 1.3167854215885837 19.357400093295251 3.1634860716392263 6.5000000000000009 5.5000000000000009 18.500000000000004 4.5000000000000009 6.5000000000000009 18.500000000000004 7.5000000000000009 6.5000000000000009 4.5000000000000009 19.500000000000004 19.500000000000004 4.5000000000000009 6.5000000000000009 19.500000000000004 4.5000000000000009 18.500000000000004 4.5000000000000009 0.92965725536800226 40.772607803344734 7.5000000000000009 11.500000000000002 19.500000000000004 4.5000000000000009
decision_type=2 2 2 2 2 2 2 2 2 2 2 2 2 2 2 2 2 2 2 2 2 2 2 2 2 2 2 2 2 2
left_child=2 3 4 7 24 19 14 -2 -7 10 -10 -5 15 -8 -4 -13 21 18 -16 -3 -21 -9 23 -15 -1 26 -6 -12 29 -28
right_child=1 5 6 11 25 8 13 16 9 -11 27 12 -14 22 17 -17 -18 -19 -20 20 -22 -23 -24 -25 -26 -27 28 -29 -30 -31
leaf_value=-0.30917418221248771 0.10678513306346211 0.5045642938425331 -0.15831362702593554 0.30626673430628043 -0.22891321879137863 0.55919656653114458 -0.03809615575479449 0.4024938893179657 1.4891522978322858 0.85013003671615539 0.53770175415929922 0.75098738094562822 0.42520570582028872 0.25157546344427456 0.054555948141285726 0.43316852765690056 0.21650412264582566 -0.086490642353288044 -0.07014633759933632 0.97265058116540704 0.58504350752937451 0.2349248556269041 0.061793380105034372 0.071232246240996736 -0.2382706881675335 -0.22586044119905913 -0.053793457234557522 1.1415111625140755 -0.18364586158874094 -0.16654645251180947
leaf_weight=138536 26136 4263 26351 11916 26648 1978 20789 45207 9337 4712 1086 21001 15581 35297 95605 6582 33592 46264 36029 10459 5091 19213 33672 15967 136359 38682 77252 2628 35026 27901
leaf_count=138536 26136 4263 26351 11916 26648 1978 20789 45207 9337 4712 1086 21001 15581 35297 95605 6582 33592 46264 36029 10459 5091 19213 33672 15967 136359 38682 77252 2628 35026 27901
internal_value=1.60328e-10 0.455122 -0.125981 0.344087 -0.219386 0.958242 0.0187801 0.263982 1.14482 1.21004 1.33998 0.524641 0.584926 0.106937 -0.0268525 0.675148 0.305901 -0.00737998 0.0204242 0.77234 0.84575 0.352517 0.142436 0.195405 -0.274003 -0.146328 -0.127887 0.964953 -0.108681 -0.083711
internal_weight=1.00916e+06 218782 790378 179228 480404 39554 309974 124148 19741 17763 13051 55080 43164 105725 204249 27583 98012 177898 131634 19813 15550 64420 84936 51264 274895 205509 166827 3714 140179 105153
internal_count=1009160 218782 790378 179228 480404 39554 309974 124148 19741 17763 13051 55080 43164 105725 204249 27583 98012 177898 131634 19813 15550 64420 84936 51264 274895 205509 166827 3714 140179 105153
is_linear=0
shrinkage=0.05


Tree=9
num_leaves=31
num_cat=0
split_feature=4 4 4 4 4 4 4 3 6 3 3 3 3 6 4 6 3 6 4 3 4 6 4 3 6 3 4 3 1 3
split_gain=2.09028e+07 5.21007e+06 3.12473e+06 1.37826e+06 521146 450874 337533 209108 161724 148989 114126 111729 106479 90855.5 89498.5 84306.2 81362.2 80612.5 78977.9 67941.6 66464.2 62808.2 58758.5 57120.6 56478.7 54016.7 51018.8 89868.6 91576.4 49606.1
threshold=3.8229848208145589 9.2027599908101045 1.661981214061387 17.777822853791069 2.4532291244884958 5.8502161017383392 0.9986308109329175 40.773363113403327 4.5000000000000009 40.777265548706062 40.76947212219239 40.791402816772468 40.774564743041999 4.5000000000000009 20.499488885133278 5.5000000000000009 40.793741226196296 5.5000000000000009 0.19086238698898611 40.745950698852546 3.2644527673405883 5.5000000000000009 7.0927909579412196 40.767854690551765 4.5000000000000009 40.778120040893562 12.003981544938233 40.750772476196296 40.757944107055671 40.745611190795906
decision_type=2 2 2 2 2 2 2 2 2 2 2 2 2 2 2 2 2 2 2 2 2 2 2 2 2 2 2 2 2 2
left_child=2 5 6 7 12 11 18 13 14 17 19 15 21 26 -5 -2 22 20 -1 -8 -6 29 -7 -20 -21 -16 27 -3 -29 -4
right_child=1 3 4 8 9 16 10 -9 -10 -11 -12 -13 -14 -15 25 -17 -18 -19 23 24 -22 -23 -24 -25 -26 -27 -28 28 -30 -31
leaf_value=-0.063163839846864037 0.21675917106508422 0.5405949575938197 -0.092414634435451753 1.0210373355095907 0.045325917468890926 0.31739456695884105 -0.21071626167774204 0.43322466056550035 0.84681704905077781 -0.06630549312000987 -0.26182351850260721 0.024708675582151386 -0.1636406617061652 0.52222511713482722 1.312152806439612 0.088623300349270143 0.21826642062747156 -0.03728131382042759 -0.27488218187533198 -0.12675951978186834 0.12423395536459035 -0.14923682489477794 0.41611648196726164 -0.34280717685788475 -0.21381462744358803 0.99502742922579712 0.78742790665938101 0.49127341072117653 0.88311285367927139 -0.030553417757275395
leaf_weight=3830 86102 8939 54249 8508 84959 30934 73904 14596 6761 30725 47153 10288 35708 9308 6870 15086 11112 20344 116421 77305 38907 20583 29395 42159 24547 1669 10826 2056 5427 80489
leaf_count=3830 86102 8939 54249 8508 84959 30934 73904 14596 6761 30725 47153 10288 35708 9308 6870 15086 11112 20344 116421 77305 38907 20583 29395 42159 24547 1669 10826 2056 5427 80489
internal_value=2.03159e-10 0.388408 -0.133321 0.739481 -0.0286884 0.244537 -0.232697 0.593212 1.05374 0.0336624 -0.192752 0.181694 -0.0857861 0.657092 1.13581 0.197656 0.342596 0.0549613 -0.287522 -0.174221 0.0701114 -0.0678875 0.365496 -0.29294 -0.14774 1.25017 0.703163 0.647612 0.775453 -0.0554603
internal_weight=1.00916e+06 257877 751283 74960 365964 182917 385319 51152 23808 174935 222909 111476 191029 36556 17047 101188 71441 144210 162410 175756 123866 155321 60329 158580 101852 8539 27248 16422 7483 134738
internal_count=1009160 257877 751283 74960 365964 182917 385319 51152 23808 174935 222909 111476 191029 36556 17047 101188 71441 144210 162410 175756 123866 155321 60329 158580 101852 8539 27248 16422 7483 134738
is_linear=0
shrinkage=0.05


Tree=10
num_leaves=31
num_cat=0
split_feature=4 4 4 4 4 4 5 5 5 5 4 5 5 5 5 5 5 5 5 3 4 3 7 5 5 2 3 5 4 7
split_gain=1.88925e+07 3.84819e+06 3.70779e+06 833041 679700 463120 440434 495967 296137 240805 226658 226207 220943 198210 173745 166194 143856 118313 113170 127573 109958 100133 98949.1 98146.8 95225.3 168872 94380.9 88308.8 80906.8 76109.6
threshold=4.6208964489003854 2.0597017397655315 13.727666932012378 8.7502500460154504 1.3051270396649302 3.2644527673405883 5.5000000000000009 19.500000000000004 7.5000000000000009 6.5000000000000009 20.022123797522202 18.500000000000004 7.5000000000000009 7.5000000000000009 18.500000000000004 18.500000000000004 18.500000000000004 13.500000000000002 7.5000000000000009 40.76947212219239 0.85940511044779744 40.777265548706062 4.5000000000000009 18.500000000000004 13.500000000000002 -73.959331512451158 40.745321273803718 17.500000000000004 0.19086238698898611 4.5000000000000009
decision_type=2 2 2 2 2 2 2 2 2 2 2 2 2 2 2 2 2 2 2 2 2 2 2 2 2 2 2 2 2 2
left_child=1 4 3 8 20 13 -4 10 -2 -5 17 22 -7 -3 -10 21 -14 -8 -6 23 28 -15 -11 26 25 -12 -20 29 -1 -26
right_child=2 5 6 9 18 12 7 -9 14 11 24 -13 16 15 -16 -17 -18 -19 19 -21 -22 -23 -24 -25 27 -27 -28 -29 -30 -31
leaf_value=-0.060005647415791001 0.12844339497056759 -0.12518254314684127 0.44706536872910019 0.29161850417191748 -0.2157246964524 -0.030650543242387741 0.7559082578263161 0.61678150169473911 0.36989061396471706 0.58513025264651009 1.3757762259305419 0.40283666544895075 0.19858399029041196 0.065715914982521426 0.22916729907890898 -0.060888737465144505 0.068173932144236532 1.0729693160130314 -0.12755801036986594 -0.18955741323628977 -0.22146411405164518 -0.056632599542279227 0.79695574296460681 -0.15150888005532503 1.3358431964223962 0.80168356835843546 -0.025290383504347841 1.0712327427411543 -0.29375143290373973 1.7681196743363068
leaf_weight=3830 30527 34671 4765 9862 33237 22031 5479 7733 50558 15417 2483 13145 52833 88844 38742 59942 35260 6355 36126 44570 156317 20601 8582 47540 2864 2646 60080 1762 110778 1580
leaf_count=3830 30527 34671 4765 9862 33237 22031 5479 7733 50558 15417 2483 13145 52833 88844 38742 59942 35260 6355 36126 44570 156317 20601 8582 47540 2864 2646 60080 1762 110778 1580
internal_value=8.77748e-11 -0.108393 0.431785 0.33286 -0.19562 0.0283343 0.89451 0.963504 0.262882 0.511247 1.07923 0.569559 0.110969 -0.0162612 0.308839 0.00603343 0.146386 0.926174 -0.130664 -0.115651 -0.248739 0.0426861 0.660879 -0.0927354 1.23902 1.07961 -0.0636926 1.37077 -0.28594 1.48953
internal_weight=1.00916e+06 806660 202500 166833 492478 314182 35667 30902 119827 47006 23169 37144 110124 204058 89300 169387 88093 11834 221553 188316 270925 109445 23999 143746 11335 5129 96206 6206 114608 4444
internal_count=1009160 806660 202500 166833 492478 314182 35667 30902 119827 47006 23169 37144 110124 204058 89300 169387 88093 11834 221553 188316 270925 109445 23999 143746 11335 5129 96206 6206 114608 4444
is_linear=0
shrinkage=0.05


Tree=11
num_leaves=31
num_cat=0
split_feature=4 4 4 4 4 4 5 5 6 5 5 5 5 6 5 5 6 5 6 5 6 4 5 3 5 5 3 5 7 5
split_gain=1.70663e+07 3.71608e+06 3.17983e+06 859741 661254 445815 347748 396772 282111 259808 241296 250382 207165 203945 198112 148828 156145 147819 158228 129761 131794 113281 105206 110688 102281 91736.4 103243 189157 89797.5 80896.7
threshold=4.8333739426658564 2.1108174652464542 16.153731132917503 8.9854833199740209 1.3513350357880374 3.4474265017158996 6.5000000000000009 18.500000000000004 4.5000000000000009 7.5000000000000009 6.5000000000000009 18.500000000000004 7.5000000000000009 4.5000000000000009 6.5000000000000009 18.500000000000004 4.5000000000000009 19.500000000000004 4.5000000000000009 18.500000000000004 4.5000000000000009 0.89483702728398806 6.5000000000000009 40.769800186157234 11.500000000000002 14.500000000000002 40.697629928588874 8.5000000000000018 4.5000000000000009 19.500000000000004
decision_type=2 2 2 2 2 2 2 2 2 2 2 2 2 2 2 2 2 2 2 2 2 2 2 2 2 2 2 2 2 2
left_child=1 4 3 9 21 14 -4 8 25 -2 -5 13 -7 28 -3 16 -11 18 -16 20 -14 -1 -6 29 -10 26 -8 -28 -12 -24
right_child=2 5 6 10 22 12 7 -9 24 15 11 -13 19 -15 17 -17 -18 -19 -20 -21 -22 -23 23 -25 -26 -27 27 -29 -30 -31
leaf_value=-0.26856426895145058 0.1356492539807147 -0.12892290951492671 0.52059762993652714 0.3014161242798255 -0.21545895884935634 -0.019874077720593769 0.95263159837815137 0.68407177487002546 0.41133248216859075 0.42830021384567785 0.66077156075477017 0.40269164297879634 0.26543892795876145 0.40943618741756604 0.073874578093086715 0.23277677322254142 0.23045276867986333 -0.061038730626123222 -0.047362675700706777 0.08075760614502045 0.088539402150053167 -0.20529197090118378 -0.063261703988205006 -0.17359212045206993 0.94575569264279857 1.433823584404359 2.0332614816453973 1.1380418945934949 0.88418598300834617 -0.149528816514471
leaf_weight=126605 29080 28256 4530 10756 24378 20685 3356 6966 1206 32661 12591 14606 33152 6097 97390 35976 14356 49023 37189 32986 15429 160320 111729 45299 3475 4851 769 2536 6997 35910
leaf_count=126605 29080 28256 4530 10756 24378 20685 3356 6966 1206 32661 12591 14606 33152 6097 97390 35976 14356 49023 37189 32986 15429 160320 111729 45299 3475 4851 769 2536 6997 35910
internal_value=-5.97069e-11 -0.0992862 0.425823 0.341728 -0.18338 0.0357098 0.921242 0.99961 1.13535 0.264258 0.511813 0.56798 0.121452 0.661972 -0.00567301 0.309321 0.36789 0.0132949 0.0403724 0.157291 0.209257 -0.233211 -0.117588 -0.105222 0.808068 1.26843 1.14798 1.34634 0.740577 -0.0842443
internal_weight=1.00916e+06 818351 190809 163120 504241 314110 27689 23159 16193 112073 51047 40291 102252 25685 211858 82993 47017 183602 134579 81567 48581 286925 217316 192938 4681 11512 6661 3305 19588 147639
internal_count=1009160 818351 190809 163120 504241 314110 27689 23159 16193 112073 51047 40291 102252 25685 211858 82993 47017 183602 134579 81567 48581 286925 217316 192938 4681 11512 6661 3305 19588 147639
is_linear=0
shrinkage=0.05


Tree=12
num_leaves=31
num_cat=0
split_feature=4 4 4 4 4 4 4 3 4 3 6 3 3 3 1 4 3 3 6 7 6 3 6 2 3 3 6 3 4 3
split_gain=1.54247e+07 3.67552e+06 2.47463e+06 796260 459232 448360 239369 145512 141889 128691 121140 110012 102251 100971 86712.6 81659.6 78749.8 76106.2 67152.5 63035.1 65228.7 61849.2 60381.9 58664.6 57415.2 52399.9 51996.9 51047.6 48772.5 46548.1
threshold=3.9660426836235163 12.003981544938233 1.6485227372706523 6.761390565878715 2.5822089315827248 19.357400093295251 1.086619838752177 40.814809799194343 9.2027599908101045 40.779600143432624 4.5000000000000009 40.791402816772468 40.740232467651374 40.772607803344734 40.75293159484864 5.3443220664154625 40.766801834106452 40.750772476196296 5.5000000000000009 3.5000000000000004 1.5000000000000002 40.767854690551765 5.5000000000000009 -73.977695465087876 40.747335433959968 40.745611190795906 5.5000000000000009 40.717695236206062 3.4474265017158996 40.691259384155281
decision_type=2 2 2 2 2 2 2 2 2 2 2 2 2 2 2 2 2 2 2 2 2 2 2 2 2 2 2 2 2 2
left_child=2 3 6 11 13 12 21 8 -5 18 19 15 -3 22 -10 26 24 29 27 -7 -21 -1 25 -19 -8 -4 -2 -6 -29 -16
right_child=1 5 4 7 9 10 16 -9 14 -11 -12 -13 -14 -15 17 -17 -18 23 -20 20 -22 -23 -24 -25 -26 -27 -28 28 -30 -31
leaf_value=-0.2233514418499134 0.17973144911098107 0.69073131356760209 -0.074248781918438769 0.34724566875713769 -0.018247494332211938 0.90385389788352166 -0.17663456702736069 0.17992074843341166 0.36883035432300981 -0.062747512159716384 0.73983930824350708 0.040224000393623817 0.47370955499164158 -0.13413094610431586 0.6706201810130511 0.24957924827816289 -0.21785140368205391 0.78332901368250296 -0.024624869926475553 0.93143865357036904 1.2348289847877245 -0.2876410628893194 -0.12612607029527492 0.53485734292396214 -0.11278264155573399 -0.014136894590346463 0.061488535779100961 0.065902752338633228 0.14194417022786571 0.39058038517910626
leaf_weight=143287 61864 15466 62216 40029 12985 6728 65751 7864 9086 24687 5595 12950 8362 46182 1895 41894 45837 4627 19578 2925 4493 50629 23082 4882 75785 86877 10942 76746 29076 6840
leaf_count=143287 61864 15466 62216 40029 12985 6728 65751 7864 9086 24687 5595 12950 8362 46182 1895 41894 45837 4627 19578 2925 4493 50629 23082 4882 75785 86877 10942 76746 29076 6840
internal_value=-1.47693e-10 0.343893 -0.111115 0.254408 -0.0210694 0.760566 -0.201194 0.383447 0.407208 0.0424159 0.936785 0.178367 0.614572 -0.068481 0.495032 0.193963 -0.160892 0.557884 0.0611764 1.01468 1.1152 -0.240137 -0.0508719 0.655762 -0.142445 -0.0392214 0.161961 0.0753154 0.0867961 0.451333
internal_weight=1.00916e+06 246442 762718 202873 381429 43569 381289 75223 67359 163072 19741 127650 23828 218357 27330 114700 187373 18244 138385 14146 7418 193916 172175 9509 141536 149093 72806 118807 105822 8735
internal_count=1009160 246442 762718 202873 381429 43569 381289 75223 67359 163072 19741 127650 23828 218357 27330 114700 187373 18244 138385 14146 7418 193916 172175 9509 141536 149093 72806 118807 105822 8735
is_linear=0
shrinkage=0.05


Tree=13
num_leaves=31
num_cat=0
split_feature=0 2 2 2 5 0 2 5 5 1 6 5 0 7 5 2 2 0 1 5 1 5 6 6 5 6 6 6 5 5
split_gain=5.96093e+06 3.04446e+06 1.04643e+06 691634 451391 382367 349729 343419 292108 262858 240904 205834 188326 183505 173327 152362 150309 312436 136784 130513 124019 113592 116055 105591 102656 101182 105643 95120.6 99640.5 84741.4
threshold=-73.874469757080064 -73.916698455810533 -73.960536956787095 -73.814430236816392 18.500000000000004 -73.950763702392564 -74.017665863037095 12.500000000000002 7.5000000000000009 40.687694549560554 5.5000000000000009 5.5000000000000009 -73.897438049316392 3.5000000000000004 12.500000000000002 -73.903980255126939 -73.963504791259751 -73.977260589599581 40.695238113403327 18.500000000000004 40.677452087402351 17.500000000000004 4.5000000000000009 4.5000000000000009 8.5000000000000018 4.5000000000000009 1.0000000180025095e-35 4.5000000000000009 6.5000000000000009 14.500000000000002
decision_type=2 2 2 2 2 2 2 2 2 2 2 2 2 2 2 2 2 2 2 2 2 2 2 2 2 2 2 2 2 2
left_child=1 6 4 5 9 14 -1 -5 16 11 12 -2 13 -10 -3 18 -8 -18 -4 25 -6 22 29 24 -13 26 -15 28 -11 -9
right_child=2 3 15 7 20 -7 8 21 10 27 -12 23 -14 19 -16 -17 17 -19 -20 -21 -22 -23 -24 -25 -26 -27 -28 -29 -30 -31
leaf_value=0.44140579422403053 0.4126574316773004 0.25982536558564506 0.56509280172952681 0.45731982730059662 0.64124775789707111 -0.096443598903801109 -0.13638488664961812 1.1110422336485124 -0.050535927378564029 0.096524139558873373 -0.10987720410715154 1.7141758595489407 0.47084314937449767 -0.039621315655927657 0.53261363900916048 0.061134374366649952 0.10667362715467638 -0.1670382727717043 0.18741774046495074 -0.040402107063968955 0.26795381368094534 0.73383472085245804 0.79863962048245218 0.86213584166151547 1.1703334915727084 -0.050488465748511346 0.058850807203067672 0.41011318639192673 0.81909877904713513 1.7213627953801851
leaf_weight=3692 1046 12835 4616 3832 4174 5038 118332 1021 335640 505 90541 1067 1925 33500 10659 6915 21504 20238 4988 118384 4765 1510 968 2169 4646 36894 145678 2158 8636 1284
leaf_count=3692 1046 12835 4616 3832 4174 5038 118332 1021 335640 505 90541 1067 1925 33500 10659 6915 21504 20238 4988 118384 4765 1510 968 2169 4646 36894 145678 2158 8636 1284
internal_value=-3.24301e-11 -0.0264614 0.558059 0.417378 0.73815 0.298826 -0.04426 0.810009 -0.0462034 0.868913 -0.0333135 1.07169 -0.0229981 -0.0244168 0.383587 0.24009 -0.107608 -0.0260316 0.368941 0.00179476 0.442261 1.09257 1.25808 1.15914 1.27191 0.0249141 0.04044 0.708692 0.77918 1.45102
internal_weight=1.00916e+06 963475 45685 37147 29166 28532 926328 8615 922636 20227 762562 8928 672021 670096 23494 16519 160074 41742 9604 334456 8939 4783 3273 7882 5713 216072 179178 11299 9141 2305
internal_count=1009160 963475 45685 37147 29166 28532 926328 8615 922636 20227 762562 8928 672021 670096 23494 16519 160074 41742 9604 334456 8939 4783 3273 7882 5713 216072 179178 11299 9141 2305
is_linear=0
shrinkage=0.05


Tree=14
num_leaves=31
num_cat=0
split_feature=1 3 1 2 2 1 5 3 1 1 3 2 2 5 5 5 5 5 6 5 1 2 3 1 1 3 3 1 1 6
split_gain=3.53226e+06 2.78739e+06 992049 982966 526216 425061 401458 293158 1.44675e+06 1.1955e+06 416388 271733 203805 192089 266237 153664 187306 145776 142899 149836 141959 125194 121820 435633 428334 131032 120844 114998 114778 105935
threshold=40.648580551147468 40.697629928588874 40.730432510375984 -73.92818450927733 -73.959331512451158 40.677452087402351 7.5000000000000009 40.767160415649421 40.752645492553718 40.768426895141609 40.759504318237312 -73.868190765380845 -73.981510162353501 11.500000000000002 18.500000000000004 19.500000000000004 5.5000000000000009 11.500000000000002 5.5000000000000009 18.500000000000004 40.774251937866218 -73.874725341796847 40.748582839965827 40.736581802368171 40.755380630493171 40.730688095092781 40.788640975952156 40.703218460083015 40.73999214172364 4.5000000000000009
decision_type=2 2 2 2 2 2 2 2 2 2 2 2 2 2 2 2 2 2 2 2 2 2 2 2 2 2 2 2 2 2
left_child=4 2 11 5 15 -3 -7 9 28 18 12 27 -11 -4 29 16 -1 -5 19 22 26 -6 24 -24 -8 -26 -10 -2 -9 -15
right_child=1 3 13 17 21 6 7 8 20 10 -12 -13 -14 14 -16 -17 -18 -19 -20 -21 -22 -23 23 -25 25 -27 -28 -29 -30 -31
leaf_value=0.35360058120915416 -0.10640123791513333 0.71949325244144791 0.40741677008327426 0.11353664163017996 0.4955746769833243 -0.11887028305881019 -0.083339170339311638 0.32110072655517763 -0.11590016432345573 0.33021719147030554 0.022922212898143994 0.74829147699016774 0.13006796618927755 1.0342890149710096 0.49313920712267723 0.55841589231970779 1.0494497345808156 0.30329046409807736 -0.11945406877780718 -0.072642922582556391 -0.17826500101990886 0.086370340797344181 0.24737879252116604 -0.01309371756915605 0.30154168716764335 0.062081137728298867 0.036083841549536561 0.15727448257963214 0.13908959933800766 0.62889508573976016
leaf_weight=1100 6855 1829 8760 19948 4848 147831 110658 14662 78739 31459 33011 1528 21351 5287 7663 3113 8003 20547 51910 141025 90607 3042 19069 101469 8731 16526 15684 10422 21165 2318
leaf_count=1100 6855 1829 8760 19948 4848 147831 110658 14662 78739 31459 33011 1528 21351 5287 7663 3113 8003 20547 51910 141025 90607 3042 19069 101469 8731 16526 15684 10422 21165 2318
internal_value=1.04562e-10 -0.0133373 0.38118 -0.0311961 0.65609 -0.0419718 -0.0435126 -0.0287782 -0.0772453 -0.00877794 0.162222 0.10918 0.249297 0.594055 0.701139 0.861661 0.965364 0.209817 -0.0414344 -0.0312451 -0.133557 0.337805 -0.0084802 0.0281128 -0.0409332 0.144859 -0.0906551 0.0526558 0.213577 0.910725
internal_weight=1.00916e+06 989054 42833 946221 20106 905726 903897 756066 220857 535209 85821 18805 52810 24028 15268 12216 9103 40495 449388 397478 185030 7890 256453 120538 135915 25257 94423 17277 35827 7605
internal_count=1009160 989054 42833 946221 20106 905726 903897 756066 220857 535209 85821 18805 52810 24028 15268 12216 9103 40495 449388 397478 185030 7890 256453 120538 135915 25257 94423 17277 35827 7605
is_linear=0
shrinkage=0.05


Tree=15
num_leaves=31
num_cat=0
split_feature=4 4 4 4 4 4 5 5 5 4 5 5 5 5 5 5 7 5 2 5 5 5 3 5 3 5 3 5 4 5
split_gain=1.25e+07 2.90685e+06 1.98399e+06 627217 382073 374896 251068 274458 228667 168494 166098 162387 161661 203187 131804 125884 108466 105681 94874.2 93802.9 92685 92282.4 84203.3 79480.9 82144.1 76317.3 70492.7 74454.4 65914.5 63523
threshold=3.7323656220269386 9.6377278684388923 1.557457458181841 17.777822853791069 2.3704253710269119 5.9678120605648646 6.5000000000000009 18.500000000000004 6.5000000000000009 0.97613824588377962 6.5000000000000009 6.5000000000000009 6.5000000000000009 18.500000000000004 19.500000000000004 19.500000000000004 3.5000000000000004 14.500000000000002 -73.943614959716783 6.5000000000000009 18.500000000000004 18.500000000000004 40.782392501831062 13.500000000000002 40.702114105224616 13.500000000000002 40.771833419799812 7.5000000000000009 0.19086238698898611 19.500000000000004
decision_type=2 2 2 2 2 2 2 2 2 2 2 2 2 2 2 2 2 2 2 2 2 2 2 2 2 2 2 2 2 2
left_child=2 5 9 12 19 8 -5 16 -2 28 -6 -7 -3 17 -10 22 -8 18 -14 -4 -21 25 -12 24 -18 -13 27 -11 -1 -29
right_child=1 3 4 6 10 11 7 -9 14 26 15 21 13 -15 -16 -17 23 -19 -20 20 -22 -23 -24 -25 -26 -27 -28 29 -30 -31
leaf_value=-0.025267421913511962 -0.00096474423303819813 0.28136931417534211 -0.16659090439170249 0.40449223372057691 -0.093449143980621999 0.15353202579385941 0.82331764166289245 0.5624609058585549 0.21577953942865447 -0.22588522849792514 0.088353652212535841 0.31387887689404953 0.65038542669092081 0.35985856964582114 0.093661581573805316 -0.027768844528549955 0.67613353916894114 0.75895445423863495 0.38336065212425008 -0.037748210503324733 -0.11467761567765244 0.2499149972377584 -0.040511872196929768 1.2453443422388479 1.1600005680273455 0.4643989611524032 -0.22338299435891901 -0.11310337053766469 -0.23531095359560725 -0.19294492910516226
leaf_weight=3830 22162 9351 24165 3669 25424 17668 6669 5757 68477 24969 99508 19485 7180 12909 32622 43822 1719 7724 6198 125458 56915 23251 14527 4203 1791 14831 36445 105026 150746 32659
leaf_count=3830 22162 9351 24165 3669 25424 17668 6669 5757 68477 24969 99508 19485 7180 12909 32622 43822 1719 7724 6198 125458 56915 23251 14527 4203 1791 14831 36445 105026 150746 32659
internal_value=2.31983e-11 0.294385 -0.10519 0.578702 -0.0273915 0.198174 0.7849 0.854204 0.14449 -0.190939 0.0251561 0.286128 0.465488 0.51611 0.176375 0.0442584 0.970986 0.611696 0.526673 -0.074022 -0.0617564 0.326823 0.0719374 1.09867 0.92303 0.378932 -0.160531 -0.146448 -0.230107 -0.132042
internal_weight=1.00916e+06 265666 743494 67170 389819 198496 23808 20139 123261 353675 183281 75235 43362 34011 101099 157857 14382 21102 13378 206538 182373 57567 114035 7713 3510 34316 199099 162654 154576 137685
internal_count=1009160 265666 743494 67170 389819 198496 23808 20139 123261 353675 183281 75235 43362 34011 101099 157857 14382 21102 13378 206538 182373 57567 114035 7713 3510 34316 199099 162654 154576 137685
is_linear=0
shrinkage=0.05


Tree=16
num_leaves=31
num_cat=0
split_feature=4 4 4 4 4 4 5 5 5 5 5 5 4 5 5 5 5 1 5 7 5 5 3 2 5 3 5 3 5 3
split_gain=1.12838e+07 2.70781e+06 1.72112e+06 607804 327849 319675 226589 247698 196710 156284 194167 153312 152066 149784 129125 127873 101301 98555.3 90236.4 85826.9 84225.4 77366.3 86239.9 75467.4 90438.1 72271.9 65205.7 64784.4 67512.6 64104.7
threshold=3.6482300714681664 9.4071845743895057 1.557457458181841 17.777822853791069 5.6350715167795444 2.2916848977378446 6.5000000000000009 18.500000000000004 7.5000000000000009 6.5000000000000009 19.500000000000004 6.5000000000000009 0.97613824588377962 7.5000000000000009 18.500000000000004 19.500000000000004 13.500000000000002 40.709489822387702 8.5000000000000018 4.5000000000000009 19.500000000000004 7.5000000000000009 40.770185470581062 -73.943614959716783 13.500000000000002 40.782392501831062 19.500000000000004 40.766801834106452 7.5000000000000009 40.745611190795906
decision_type=2 2 2 2 2 2 2 2 2 2 2 2 2 2 2 2 2 2 2 2 2 2 2 2 2 2 2 2 2 2
left_child=2 4 12 9 8 21 -5 16 -2 -3 23 -6 -1 -7 25 -10 17 18 -8 -18 -13 -4 26 -11 -25 -15 29 28 -14 -23
right_child=1 3 5 6 11 13 7 -9 15 10 -12 20 27 14 -16 -17 19 -19 -20 -21 -22 22 -24 24 -26 -27 -28 -29 -30 -31
leaf_value=-0.21860127891139683 0.0040091853014789566 0.26148517588608916 -0.1487178198251928 0.38426762224654248 0.134131122432502 -0.078041617235542843 1.3685529909824041 0.53433786173615128 0.20258918221314773 0.63659851771034592 0.3147063470949672 0.33597212563028928 -0.21333514434667389 0.08846453736093346 -0.021623529429289343 0.078664895465492615 0.91750573799434343 0.56352319544573382 0.79744611134486487 1.2586363774279707 0.21518287100613953 -0.070459594969794453 -0.12499280989735717 0.32600158207946389 0.61012610602677975 -0.039473734570875323 -0.10162596987714656 -0.20259828159237037 -0.12170023370851311 0.015787709601381136
leaf_weight=154576 25329 10098 29440 3669 19477 33917 959 5757 62174 14326 11715 41899 23899 87120 57881 31294 5075 2971 2481 2896 22015 35531 39283 5791 5424 12640 31591 48741 126459 54732
leaf_count=154576 25329 10098 29440 3669 19477 33917 959 5757 62174 14326 11715 41899 23899 87120 57881 31294 5075 2971 2481 2896 22015 35531 39283 5791 5424 12640 31591 48741 126459 54732
internal_value=6.53615e-11 0.27431 -0.101905 0.539571 0.180949 -0.0283373 0.745655 0.811494 0.127605 0.435958 0.483248 0.256942 -0.181392 0.017277 0.0377852 0.161098 0.922437 0.774471 0.956659 1.04144 0.294367 -0.0741864 -0.0605694 0.560554 0.463415 0.0722542 -0.0398007 -0.152504 -0.136265 -0.0181626
internal_weight=1.00916e+06 273350 735810 71162 202188 382135 23808 20139 118797 47354 37256 83391 353675 191558 157641 93468 14382 6411 3440 7971 63914 190577 161137 25541 11215 99760 121854 199099 150358 90263
internal_count=1009160 273350 735810 71162 202188 382135 23808 20139 118797 47354 37256 83391 353675 191558 157641 93468 14382 6411 3440 7971 63914 190577 161137 25541 11215 99760 121854 199099 150358 90263
is_linear=0
shrinkage=0.05


Tree=17
num_leaves=31
num_cat=0
split_feature=4 4 4 4 4 4 4 3 3 3 3 6 3 6 6 6 3 3 2 2 4 0 0 6 6 4 6 6 3 4
split_gain=1.01872e+07 2.33898e+06 1.64826e+06 432654 376415 235857 216981 127950 96645 90180.8 82560.5 79697.1 70450.4 69142 67316.2 62953.1 57306.7 55760.1 52456.5 56803.4 55925.4 51761.8 48647.9 47633.7 45558.4 43214.6 42082.6 42039.4 50393 41600.9
threshold=3.7766918198002575 10.141428809662758 1.7292512956343586 20.022123797522202 6.4664411336722498 2.5822089315827248 1.1556322449592222 40.772249221801765 40.791402816772468 40.781343460083015 40.814809799194343 4.5000000000000009 40.774564743041999 4.5000000000000009 5.5000000000000009 1.0000000180025095e-35 40.774564743041999 40.766801834106452 -73.874725341796847 -74.003765106201158 8.7502500460154504 -73.976833343505845 -73.897438049316392 5.5000000000000009 1.5000000000000002 0.19086238698898611 1.5000000000000002 4.5000000000000009 40.745035171508796 4.9904035566028497
decision_type=2 2 2 2 2 2 2 2 2 2 2 2 2 2 2 2 2 2 2 2 2 2 2 2 2 2 2 2 2 2
left_child=2 4 6 7 8 12 17 13 14 23 18 24 27 26 15 -2 -8 -1 19 -6 -21 -20 29 -7 -5 -19 -3 28 -4 -17
right_child=1 3 5 11 10 9 16 -9 -10 -11 -12 -13 -14 -15 -16 22 -18 25 21 20 -22 -23 -24 -25 -26 -27 -28 -29 -30 -31
leaf_value=-0.18072620575265064 0.073080670042370441 0.47401443951363131 -0.061264387844930851 0.71583758521312479 0.18461722867355804 0.062009238132500047 -0.11089682604580131 0.30895289974079138 0.0099478026661721022 -0.06558375184730289 0.10018117304581112 0.58882064854269367 -0.11131289618479995 0.3918974519132557 0.064615052258667816 0.16113533184228354 -0.18762333158222255 0.091342253554939593 0.34774849410459779 0.30274988669907299 0.42202176867245111 0.09748542237992959 -0.090213119025441435 -0.025697509081430953 0.91940045910296997 -0.24313368048416104 0.60871751537588925 -0.074832893060647582 0.0081666389053962653 0.23134206653878661
leaf_weight=159212 14753 9682 42044 4596 6787 110077 157977 10310 13029 19563 5597 4482 37176 8939 18242 52139 28768 982 3249 31847 14215 5675 1582 18014 6838 58165 14454 46261 69061 35444
leaf_count=159212 14753 9682 42044 4596 6787 110077 157977 10310 13029 19563 5597 4482 37176 8939 18242 52139 28768 982 3249 31847 14215 5675 1582 18014 6838 58165 14454 46261 69061 35444
internal_value=1.34307e-11 0.268367 -0.094038 0.544548 0.187513 -0.0132437 -0.162286 0.462747 0.139397 0.0344038 0.284065 0.767526 -0.0494074 0.510687 0.153203 0.168754 -0.122717 -0.196126 0.300726 0.31966 0.339558 0.1886 0.184584 0.0496747 0.837577 -0.23758 0.554682 -0.0347829 -0.0181072 0.189547
internal_weight=1.00916e+06 261860 747300 59301 202559 342196 405104 43385 135189 147654 67370 15916 194542 33075 122160 103918 186745 218359 61773 52849 46062 8924 89165 128091 11434 59147 24136 157366 111105 87583
internal_count=1009160 261860 747300 59301 202559 342196 405104 43385 135189 147654 67370 15916 194542 33075 122160 103918 186745 218359 61773 52849 46062 8924 89165 128091 11434 59147 24136 157366 111105 87583
is_linear=0
shrinkage=0.05


Tree=18
num_leaves=31
num_cat=0
split_feature=4 4 4 4 4 5 5 5 4 5 5 5 4 5 5 7 5 5 2 4 5 5 3 3 5 4 4 5 3 3
split_gain=9.20201e+06 2.24128e+06 1.38289e+06 540411 270059 268625 217984 251510 214659 138047 171196 134806 115346 107498 105417 94579 88535.1 82103.4 82026.4 77743 71525.8 73241.8 65637 64186.4 71359.8 63953.3 63442.2 62403.8 67751.4 60753
threshold=3.6066386080962864 9.2027599908101045 1.5198779408298728 16.153731132917503 2.2720723069814817 7.5000000000000009 6.5000000000000009 19.500000000000004 5.3443220664154625 6.5000000000000009 18.500000000000004 6.5000000000000009 0.84769270412654241 18.500000000000004 19.500000000000004 3.5000000000000004 19.500000000000004 14.500000000000002 -73.943614959716783 5.7419519917277659 6.5000000000000009 18.500000000000004 40.778120040893562 40.768705368041999 7.5000000000000009 0.19086238698898611 20.499488885133278 19.500000000000004 40.745950698852546 40.684579849243171
decision_type=2 2 2 2 2 2 2 2 2 2 2 2 2 2 2 2 2 2 2 2 2 2 2 2 2 2 2 2 2 2
left_child=2 5 12 9 20 19 -5 15 13 -3 17 -6 25 -7 22 -8 -10 18 -11 -2 -4 -22 -13 24 -14 -1 -17 28 -26 -12
right_child=1 3 4 6 11 8 7 -9 16 10 29 14 23 -15 -16 26 -18 -19 -20 -21 21 -23 -24 -25 27 -27 -28 -29 -30 -31
leaf_value=-0.0075255528482079314 -0.00064402006526829438 0.21087945723488366 -0.15261242499735628 0.33707617140728824 -0.091591884227378823 0.18535074631802639 0.68467478893482492 0.42348589231862582 0.30167061818449553 0.54039583593024454 0.47140134809728118 0.072060041540283379 -0.20499341650005418 0.072698799416206009 -0.034627515137686915 0.80130293801908548 0.18226792849051007 0.62655327310023567 0.3076563621350325 0.12830157934135952 -0.036976852887096699 -0.10688290733409561 -0.024638228115814873 -0.19546235868715478 -0.14814460993810349 -0.21547119873851087 1.0626342058096245 -0.17587565822377035 -0.069745630831059557 0.22117454789614954
leaf_weight=3830 27091 9973 22885 4530 26214 51740 8179 5569 42578 8143 3157 98956 28315 35850 45233 5240 24434 8451 7075 20561 120999 54276 21332 51446 45423 106846 4171 36127 70064 10472
leaf_count=3830 27091 9973 22885 4530 26214 51740 8179 5569 42578 8143 3157 98956 28315 35850 45233 5240 24434 8451 7075 20561 120999 54276 21332 51446 45423 106846 4171 36127 70064 10472
internal_value=4.95364e-11 0.245337 -0.0929179 0.478868 -0.0285461 0.158785 0.654281 0.716327 0.190776 0.37612 0.420303 0.013758 -0.166294 0.139243 0.0304426 0.809041 0.258134 0.501589 0.432193 0.0549937 -0.0694786 -0.0586241 0.0549115 -0.146212 -0.13213 -0.208275 0.917126 -0.118523 -0.100581 0.279137
internal_weight=1.00916e+06 277214 731946 74960 389895 202254 27689 23159 154602 47271 37298 191735 342051 87590 165521 17590 67012 23669 15218 47652 198160 175275 120288 231375 179929 110676 9411 151614 115487 13629
internal_count=1009160 277214 731946 74960 389895 202254 27689 23159 154602 47271 37298 191735 342051 87590 165521 17590 67012 23669 15218 47652 198160 175275 120288 231375 179929 110676 9411 151614 115487 13629
is_linear=0
shrinkage=0.05


Tree=19
num_leaves=31
num_cat=0
split_feature=4 4 4 4 4 4 5 5 5 6 5 5 5 6 5 5 6 5 6 4 5 5 5 6 6 5 3 3 5 6
split_gain=8.30481e+06 2.02608e+06 1.24834e+06 388487 313091 249454 196505 184897 186735 191095 121224 117707 116228 126397 105810 149058 120876 105488 149845 101207 94500.5 80825.3 80130.9 110855 70291 69247.6 77413.3 62273.8 58829.2 80969.5
threshold=3.6066386080962864 9.865150591988705 1.507164132865326 17.777822853791069 6.3273079298084163 2.2916848977378446 6.5000000000000009 5.5000000000000009 19.500000000000004 4.5000000000000009 7.5000000000000009 7.5000000000000009 19.500000000000004 4.5000000000000009 6.5000000000000009 19.500000000000004 4.5000000000000009 18.500000000000004 4.5000000000000009 0.92965725536800226 10.500000000000002 10.500000000000002 18.500000000000004 4.5000000000000009 1.0000000180025095e-35 7.5000000000000009 40.770185470581062 40.703790664672859 19.500000000000004 4.5000000000000009
decision_type=2 2 2 2 2 2 2 2 2 2 2 2 2 2 2 2 2 2 2 2 2 2 2 2 2 2 2 2 2 2
left_child=2 4 19 14 6 25 -2 -5 9 -9 -7 -6 13 24 -3 16 -16 18 -12 -1 -11 -15 23 -13 -8 -4 28 -24 29 -27
right_child=1 3 5 7 11 10 12 8 -10 20 17 22 -14 21 15 -17 -18 -19 -20 -21 -22 -23 27 -25 -26 26 -28 -29 -30 -31
leaf_value=-0.19159201366182332 -0.0047572543919105793 0.23069230650690647 -0.1335845350406252 0.24117770904244296 0.14034540145550453 -0.07279465285617881 0.10566481664328126 0.87403170374968431 0.40590400143849897 0.086966270812615556 0.10409217129683067 0.40302297111484209 0.074410829921589136 -0.093957274116855616 0.57507994406172047 0.27097310211738657 0.29664361260841904 -0.021747074319359502 -0.031460526785526938 -0.13596212925589304 0.61969312766210838 0.1308829301440306 0.36852315110545747 0.1830374223509314 0.24730993108570409 0.012893691126153113 -0.11230651787345509 0.1641130719022936 -0.091082045261060063 -0.089235799481742858
leaf_weight=138536 26490 8635 31812 2577 18285 33177 10811 11923 4554 1076 68897 20880 38713 5044 15557 10081 5201 56664 28956 199493 3678 19257 4903 7891 46137 71407 42226 15521 34128 26650
leaf_count=138536 26490 8635 31812 2577 18285 33177 10811 11923 4554 1076 68897 20880 38713 5044 15557 10081 5201 56664 28956 199493 3678 19257 4903 7891 46137 71407 42226 15521 34128 26650
internal_value=4.24405e-11 0.23307 -0.088272 0.481605 0.159552 -0.0277836 0.118494 0.641124 0.68967 0.767158 0.0139231 0.248663 0.14571 0.179682 0.385395 0.428712 0.505317 0.0325426 0.0639803 -0.158761 0.499118 0.0842143 0.288922 0.342688 0.22042 -0.065743 -0.053369 0.213184 -0.0345416 -0.0148631
internal_weight=1.00916e+06 277214 731946 63282 213932 393917 146452 23808 21231 16677 187694 67480 119962 81249 39474 30839 20758 154517 97853 338029 4754 24301 49195 28771 56948 206223 174411 20424 132185 98057
internal_count=1009160 277214 731946 63282 213932 393917 146452 23808 21231 16677 187694 67480 119962 81249 39474 30839 20758 154517 97853 338029 4754 24301 49195 28771 56948 206223 174411 20424 132185 98057
is_linear=0
shrinkage=0.05


Tree=20
num_leaves=31
num_cat=0
split_feature=4 4 4 4 5 5 6 4 4 5 5 4 5 5 6 5 5 6 5 5 6 7 5 6 5 5 0 5 5 6
split_gain=7.51422e+06 1.56926e+06 1.41296e+06 332908 226990 294504 226916 212576 206716 165649 127835 127103 118559 116916 125821 105934 90006.3 102406 89741.5 87462.7 126403 83049.3 73373.7 86361.9 70962 67171.4 88338.6 86524.8 82473.5 61087.9
threshold=4.1228173559827095 12.003981544938233 1.8274189768718991 7.2925460390888093 5.5000000000000009 19.500000000000004 4.5000000000000009 2.9158000955206709 1.2466339839110487 6.5000000000000009 7.5000000000000009 20.499488885133278 11.500000000000002 18.500000000000004 4.5000000000000009 6.5000000000000009 19.500000000000004 4.5000000000000009 7.5000000000000009 18.500000000000004 4.5000000000000009 4.5000000000000009 19.500000000000004 4.5000000000000009 11.500000000000002 13.500000000000002 -73.871059417724595 17.500000000000004 8.5000000000000018 1.0000000180025095e-35
decision_type=2 2 2 2 2 2 2 2 2 2 2 2 2 2 2 2 2 2 2 2 2 2 2 2 2 2 2 2 2 2
left_child=2 3 8 9 -3 6 11 18 -1 -2 -5 25 -8 14 21 -9 17 29 -4 20 -20 -12 23 -17 -19 26 -6 -27 -28 -11
right_child=1 4 7 10 5 -7 12 15 -10 16 13 -13 -14 -15 -16 22 -18 24 19 -21 -22 -23 -24 -25 -26 27 28 -29 -30 -31
leaf_value=-0.16457438439638003 0.025907560487252231 0.24527808759517933 -0.10114305791884036 0.15976617864035689 0.36669736911539741 0.33370268536948622 0.11133397648413107 -0.056868917881172147 -0.09457092587916098 0.12566306927067869 0.37319593155384162 0.93296524197013597 0.54680587966180627 0.22267637074940275 0.20389143133162022 0.13488447207218365 0.10245491028669572 -0.037648453432836446 0.042693373045674443 -0.062248440954941253 -0.070660390717696198 0.57918214686345515 0.0078912243123675403 0.015387404292431118 0.1677910878420498 0.87898586825981906 1.0647146364474063 0.5068280392639507 0.52852542704913452 0.26968422823417687
leaf_weight=250724 25601 6468 35656 16426 3448 9959 2227 18396 182014 9119 13995 5981 5242 18199 7211 52249 34540 5938 86427 62956 34376 7524 30343 21277 14389 4944 1174 2283 1843 38231
leaf_count=250724 25601 6468 35656 16426 3448 9959 2227 18396 182014 9119 13995 5981 5242 18199 7211 52249 34540 5938 86427 62956 34376 7524 30343 21277 14389 4944 1174 2283 1843 38231
internal_value=1.33425e-10 0.247813 -0.0751173 0.186097 0.518611 0.566263 0.651594 0.000889219 -0.13513 0.139644 0.279816 0.740674 0.416963 0.321835 0.384647 0.0537215 0.168131 0.201649 -0.0285506 -0.014465 0.0104371 0.445218 0.0733079 0.100304 0.107777 0.656676 0.539585 0.761422 0.737172 0.241948
internal_weight=1.00916e+06 234742 774418 191173 43569 37101 27142 341680 432738 127818 63355 19673 7469 46929 28730 122265 102217 67677 219415 183759 120803 21519 103869 73526 20327 13692 6465 7227 3017 47350
internal_count=1009160 234742 774418 191173 43569 37101 27142 341680 432738 127818 63355 19673 7469 46929 28730 122265 102217 67677 219415 183759 120803 21519 103869 73526 20327 13692 6465 7227 3017 47350
is_linear=0
shrinkage=0.05


Tree=21
num_leaves=31
num_cat=0
split_feature=4 4 4 4 4 4 5 5 6 5 5 5 5 5 6 0 5 5 5 5 6 7 5 6 5 5 6 7 0 2
split_gain=6.79037e+06 1.41733e+06 1.29366e+06 246612 214653 209549 206930 293384 211961 130487 115371 115016 108549 105517 113553 87146.6 165610 82003.2 79179.6 77014.6 92512 74952 74541.6 87734 73070.5 71765.2 97064.6 64613.9 54784.7 53955.7
threshold=4.4179817528999044 1.8873851412783109 12.003981544938233 7.2925460390888093 2.9450247651551904 1.2810045339407523 6.5000000000000009 18.500000000000004 4.5000000000000009 6.5000000000000009 7.5000000000000009 6.5000000000000009 14.500000000000002 18.500000000000004 4.5000000000000009 -73.870708465576158 8.5000000000000018 11.500000000000002 7.5000000000000009 19.500000000000004 4.5000000000000009 4.5000000000000009 19.500000000000004 4.5000000000000009 17.500000000000004 18.500000000000004 4.5000000000000009 4.5000000000000009 -73.960002899169908 -73.974658966064453
decision_type=2 2 2 2 2 2 2 2 2 2 2 2 2 2 2 2 2 2 2 2 2 2 2 2 2 2 2 2 2 2
left_child=1 5 3 9 18 -1 -4 8 12 -2 -5 -6 15 14 21 -8 -17 -10 -3 20 -20 -12 23 -13 27 26 -11 -14 -15 -18
right_child=2 4 6 10 11 -7 7 -9 17 25 13 22 24 28 -16 16 29 -19 19 -21 -22 -23 -24 -25 -26 -27 -28 -29 -30 -31
leaf_value=-0.1547974983565136 0.033503480432681684 -0.093294750459423134 0.26557201431488758 0.15177786986576158 -0.050063811870598864 -0.08546167573454598 0.49403212050815193 0.34545938120900965 0.11880685945275993 0.25335893716680696 0.35453613548222407 0.13557044585594094 0.85436932568529211 0.28069499886304011 0.19369685958231128 1.3180953707815366 0.77474483751605183 0.51604362638823087 0.036999207991381358 -0.065067120667925624 -0.057754208671660735 0.55022303897884661 0.015037246529267023 0.0218217695521426 0.60066051938225185 0.11454863189206206 0.10278782127764002 1.2193517614217209 0.10271375477048106 0.37609784430040677
leaf_weight=262667 22198 33950 8153 16426 21228 186231 5156 12121 1798 35236 13995 58179 3393 11128 7211 1134 2272 4683 91365 46232 35875 7524 34721 23922 1617 35059 15373 1887 7071 1355
leaf_count=262667 22198 33950 8153 16426 21228 186231 5156 12121 1798 35236 13995 58179 3393 11128 7211 1134 2272 4683 91365 46232 35875 7524 34721 23922 1617 35059 15373 1887 7071 1355
internal_value=8.65121e-11 -0.0674423 0.249426 0.187527 0.00868866 -0.126033 0.492681 0.544963 0.64877 0.141538 0.265825 0.0569991 0.742408 0.305743 0.365415 0.636461 0.790706 0.40584 -0.0234644 -0.00979802 0.0102837 0.422957 0.0764538 0.102427 0.894746 0.169532 0.207621 0.984809 0.211543 0.625816
internal_weight=1.00916e+06 794370 214790 171221 345472 448898 43569 35416 23295 107866 63355 138050 16814 46929 28730 9917 4761 6481 207422 173472 127240 21519 116822 82101 6897 85668 50609 5280 18199 3627
internal_count=1009160 794370 214790 171221 345472 448898 43569 35416 23295 107866 63355 138050 16814 46929 28730 9917 4761 6481 207422 173472 127240 21519 116822 82101 6897 85668 50609 5280 18199 3627
is_linear=0
shrinkage=0.05


Tree=22
num_leaves=31
num_cat=0
split_feature=4 4 4 4 4 4 3 3 4 3 3 7 3 3 7 3 2 4 7 2 3 4 6 6 7 3 6 4 7 1
split_gain=6.1376e+06 1.54503e+06 888456 374855 192299 190590 93943.1 89146 89084.1 86781.8 75866.6 72465.8 60108 59389.7 54650 53812 56918 48535.6 45645 44685.3 39116.2 39077.8 37945.9 48402.3 36867.4 35732.9 54633.4 34679.7 34287 33460.9
threshold=3.5255473756839728 9.2027599908101045 1.4577201053781197 16.153731132917503 5.4445194902074059 2.2160321709169932 40.783983230590827 40.774896621704109 20.499488885133278 40.82933425903321 40.766199111938484 4.5000000000000009 40.76947212219239 40.747335433959968 3.5000000000000004 40.810325622558601 -73.874725341796847 6.761390565878715 3.5000000000000004 -73.971828460693345 40.717695236206062 0.8114467457678628 5.5000000000000009 1.0000000180025095e-35 3.5000000000000004 40.745611190795906 4.5000000000000009 0.19086238698898611 3.5000000000000004 40.753587722778327
decision_type=2 2 2 2 2 2 2 2 2 2 2 2 2 2 2 2 2 2 2 2 2 2 2 2 2 2 2 2 2 2
left_child=2 4 10 9 6 12 18 20 24 11 13 -3 25 -1 -10 16 17 -6 -2 -16 -7 -15 23 -22 -5 -4 -27 -12 -25 -11
right_child=1 3 5 8 15 7 -8 -9 14 29 27 -13 -14 21 19 -17 -18 -19 -20 -21 22 -23 -24 28 -26 26 -28 -29 -30 -31
leaf_value=-0.15107970341891383 0.070047835320643667 0.28218141068892483 -0.073682815360580009 0.37856224380905801 0.16888715731985382 -0.052578055412992535 -0.028647794733798637 -0.059852381615244026 0.52745509977937066 0.27576229610413511 0.1120384232376902 0.42036709371690117 -0.11019135186838516 -0.14505731868455721 0.87443669405316982 0.043873746736647644 0.039308863730943923 0.24933797491024734 0.13522801307435123 0.60785265531250843 -0.034315243504038188 -0.08298151486601836 -0.0323631810293784 0.026645742384064825 0.5316937812674597 -0.0028037674657327978 -0.092385541928598089 -0.18251640972291483 0.083860512824696171 0.02632524836076594
leaf_weight=110836 52740 26953 68241 7435 40575 14920 15441 39243 5627 2187 1011 14641 48258 35503 3163 6376 5490 34849 54736 3125 17420 88678 19431 51578 8339 66716 22849 86122 53187 3490
leaf_count=110836 52740 26953 68241 7435 40575 14920 15441 39243 5627 2187 1011 14641 48258 35503 3163 6376 5490 34849 54736 3125 17420 88678 19431 51578 8339 66716 22849 86122 53187 3490
internal_value=1.40638e-11 0.196475 -0.0773876 0.391368 0.126975 -0.0277945 0.0866749 0.00753273 0.537462 0.305794 -0.139249 0.330822 -0.0613585 -0.124475 0.640652 0.183725 0.194745 0.206059 0.103243 0.74195 0.0244259 -0.100729 0.0325387 0.04286 0.459516 -0.0464251 -0.025657 -0.179099 0.0556925 0.122418
internal_weight=1.00916e+06 285167 723993 74960 210207 401843 122917 195779 27689 47271 322150 41594 206064 235017 11915 87290 80914 75424 107476 6288 156536 124181 141616 122185 15774 157806 89565 87133 104765 5677
internal_count=1009160 285167 723993 74960 210207 401843 122917 195779 27689 47271 322150 41594 206064 235017 11915 87290 80914 75424 107476 6288 156536 124181 141616 122185 15774 157806 89565 87133 104765 5677
is_linear=0
shrinkage=0.05


Tree=23
num_leaves=31
num_cat=0
split_feature=4 4 4 4 4 4 4 3 3 3 3 7 3 0 3 7 4 7 7 2 2 3 0 0 3 4 2 3 2 0
split_gain=5.54331e+06 1.21686e+06 981570 246305 195069 163666 129746 87203.1 77208.8 76870 65091.8 63241 61836 57733.9 55273.1 49321.6 48267.7 47479.8 44483.2 40473.1 38184.6 85110.6 54088.7 47762.8 39628.8 36281.1 36095.2 34026.1 39062 33356.5
threshold=3.9660426836235163 11.333508485686353 1.7292512956343586 6.6112425458479622 20.499488885133278 2.6787375775572673 1.0210193774204745 40.82933425903321 40.783983230590827 40.791402816772468 40.766199111938484 3.5000000000000004 40.770185470581062 -73.874469757080064 40.774564743041999 3.5000000000000004 0.19086238698898611 3.5000000000000004 4.5000000000000009 -73.977878570556626 -73.960132598876939 40.750234603881843 -73.921844482421861 -73.975055694580064 40.711812973022468 0.71855967490853445 -73.977695465087876 40.745950698852546 -73.968280792236314 -73.945178985595689
decision_type=2 2 2 2 2 2 2 2 2 2 2 2 2 2 2 2 2 2 2 2 2 2 2 2 2 2 2 2 2 2
left_child=2 3 6 9 10 12 16 11 29 13 18 -5 -4 17 27 -6 -1 -2 -3 -17 21 -13 -23 24 -22 -18 -24 -8 -29 -7
right_child=1 4 5 7 15 8 14 -9 -10 -11 -12 20 -14 -15 -16 19 25 -19 -20 -21 23 22 26 -25 -26 -27 -28 28 -30 -31
leaf_value=0.022372054449695512 0.092940637553761279 0.36523490464150821 -0.019076604804785034 0.18764478748516564 0.5010823443076674 0.051279190752346153 -0.11123654656043747 0.0059417498265133019 -0.067907415139813812 -0.00951782459058261 0.25567215752191025 0.23340729466419458 -0.082129453897132207 -0.14085328384977183 -0.15280358724846371 0.84390931277286718 -0.1854326389751759 0.15888087544049179 0.49925857683435021 0.58913422500736157 0.48198006975645857 0.29633279044302324 0.67082883143473582 0.11177341355328647 0.24490488004548486 -0.13789415439540331 0.40325177868427559 -0.054065234368261141 -0.12348803130161164 -0.10981058680420866
leaf_weight=3830 53505 17286 159544 34199 5627 126956 77916 4351 16402 12417 8663 10027 51415 2056 36003 2856 67480 55737 9646 3432 2134 3497 2829 5776 10131 99046 2273 95079 25750 3297
leaf_count=3830 53505 17286 159544 34199 5627 126956 77916 4351 16402 12417 8663 10027 51415 2056 36003 2856 67480 55737 9646 3432 2134 3497 2829 5776 10131 99046 2273 95079 25750 3297
internal_value=-1.40462e-11 0.206157 -0.0666116 0.151861 0.433506 -0.0062411 -0.119905 0.223213 0.0343278 0.10848 0.374889 0.236553 -0.0344439 0.121644 -0.0957997 0.60862 -0.153122 0.126584 0.413237 0.704853 0.282169 0.332386 0.447801 0.230324 0.286154 -0.157158 0.55162 -0.0854733 -0.06886 0.0472016
internal_weight=1.00916e+06 246442 762718 198932 47510 357614 405104 75217 146655 123715 35595 70866 210959 111298 234748 11915 170356 109242 26932 6288 36667 18626 8599 18041 12265 166526 5102 198745 120829 130253
internal_count=1009160 246442 762718 198932 47510 357614 405104 75217 146655 123715 35595 70866 210959 111298 234748 11915 170356 109242 26932 6288 36667 18626 8599 18041 12265 166526 5102 198745 120829 130253
is_linear=0
shrinkage=0.05


Tree=24
num_leaves=31
num_cat=0
split_feature=4 4 4 4 5 4 5 3 5 5 6 4 5 6 6 5 5 5 3 3 5 2 3 5 5 1 3 6 5 5
split_gain=5.01716e+06 1.22022e+06 827619 225129 209373 185495 180784 164019 150243 171108 155429 136856 120543 133129 64323.3 65882.1 63151.8 60630.9 70921.7 59660 56361.8 69929.2 57237.2 55285.9 73028.8 126790 64463.6 54316.5 58492.7 53524.6
threshold=4.910591262412713 2.1108174652464542 16.153731132917503 1.3749602529031348 6.5000000000000009 8.7502500460154504 7.5000000000000009 40.774362564086921 6.5000000000000009 18.500000000000004 4.5000000000000009 3.1303308560164012 18.500000000000004 4.5000000000000009 5.5000000000000009 18.500000000000004 10.500000000000002 6.5000000000000009 40.767854690551765 40.687952041625984 14.500000000000002 -73.944774627685533 40.752832412719734 14.500000000000002 8.5000000000000018 40.687694549560554 40.675365447998054 5.5000000000000009 18.500000000000004 1.5000000000000002
decision_type=2 2 2 2 2 2 2 2 2 2 2 2 2 2 2 2 2 2 2 2 2 2 2 2 2 2 2 2 2 2
left_child=1 3 4 17 29 14 -3 11 -4 10 23 -8 13 20 15 -6 -12 -1 -19 -14 21 22 -7 24 25 -10 -25 28 -13 -2
right_child=2 6 8 -5 5 12 7 -9 9 -11 16 27 19 -15 -16 -17 -18 18 -20 -21 -22 -23 -24 26 -26 -27 -28 -29 -30 -31
leaf_value=-0.19398275851942562 0.15105541419480994 -0.056131204495565926 0.22291851020344933 -0.061852625788946548 0.2346014656013182 0.35598645374849602 0.026196650209406314 -0.03386491417802906 1.3606930535278252 0.33056200390766338 0.014909633751748084 0.15985652803947445 0.36650635225034967 0.16980682757746962 0.059128743063535529 0.13676739868368434 0.47537077118051774 -0.10613143803772954 -0.16519114570579618 0.13842418811176146 0.53928532823860864 0.2433320967933276 0.63584365554152267 1.0883805081957088 0.54412390066592653 0.42630886035114557 0.71229307506559203 0.0080994762898371035 0.071187862263883711 0.02662281092272787
leaf_weight=32580 15581 58176 4530 209382 40262 4489 114506 56656 813 6966 929 46054 3774 6556 10323 30052 3752 193312 68967 11931 7371 6192 3081 1829 5192 656 3022 11620 31200 19406
leaf_count=32580 15581 58176 4530 209382 40262 4489 114506 56656 813 6966 929 46054 3774 6556 10323 30052 3752 193312 68967 11931 7371 6192 3081 1829 5192 656 3022 11620 31200 19406
internal_value=9.66886e-12 -0.0531182 0.233988 -0.101499 0.190061 0.220533 0.0235464 0.0413721 0.486263 0.537775 0.626915 0.062331 0.303886 0.366647 0.175677 0.192787 0.383987 -0.129652 -0.121661 0.193234 0.427712 0.367953 0.469889 0.725694 0.632186 0.943432 0.854091 0.108887 0.124047 0.0820372
internal_weight=1.00916e+06 822453 186707 504241 159018 124031 318212 260036 27689 23159 16193 203380 43394 27689 80637 70314 4681 294859 262279 15705 21133 13762 7570 11512 6661 1469 4851 88874 77254 34987
internal_count=1009160 822453 186707 504241 159018 124031 318212 260036 27689 23159 16193 203380 43394 27689 80637 70314 4681 294859 262279 15705 21133 13762 7570 11512 6661 1469 4851 88874 77254 34987
is_linear=0
shrinkage=0.05


Tree=25
num_leaves=31
num_cat=0
split_feature=4 4 4 4 5 4 4 5 5 5 5 5 5 5 3 5 7 5 2 4 2 5 5 4 7 4 7 5 5 3
split_gain=4.54157e+06 1.17118e+06 644692 213645 208752 180818 133691 93826.5 145963 93547.6 92771 88782.9 80826.9 74747.9 72384.2 70078.1 66150.2 65255.7 90599.4 62467.2 57196.1 54601 59680 54189.8 52308.3 52166.2 51654.5 51510.6 54181.6 48523
threshold=3.4855310338304029 10.141428809662758 1.4577201053781197 20.022123797522202 7.5000000000000009 5.6350715167795444 2.2160321709169932 6.5000000000000009 19.500000000000004 5.5000000000000009 18.500000000000004 18.500000000000004 6.5000000000000009 19.500000000000004 40.774896621704109 13.500000000000002 3.5000000000000004 13.500000000000002 -73.97063827514647 0.8114467457678628 -73.932689666748033 6.5000000000000009 19.500000000000004 5.6350715167795444 3.5000000000000004 0.19086238698898611 4.5000000000000009 7.5000000000000009 18.500000000000004 40.703790664672859
decision_type=2 2 2 2 2 2 2 2 2 2 2 2 2 2 2 2 2 2 2 2 2 2 2 2 2 2 2 2 2 2
left_child=2 4 19 7 23 11 21 -3 15 -5 17 24 -8 16 -14 20 -7 18 -11 25 -9 -4 -23 -2 -6 -1 -17 -21 -29 -15
right_child=1 3 6 9 5 13 12 8 -10 10 -12 -13 14 29 -16 26 -18 -19 -20 27 -22 22 -24 -25 -26 -27 -28 28 -30 -31
leaf_value=0.028013221349214742 -0.01776239493593634 0.16641100186241542 -0.1242721539137905 0.16294029606935542 0.093350745101129978 0.18046684596211504 -0.076591028781725384 0.42132867904521298 0.19487938959596668 0.74695175814260317 0.35133554821424245 0.046482996884251684 0.035330165587543233 0.2643679751421234 -0.045653814257675021 0.42150895430685148 0.30087973697804526 0.76169457021260989 0.32409087010436999 -0.16356018831404573 0.18769728903828087 -0.027594617897981039 -0.095200808782273341 0.083126447609259857 0.18462571509059089 -0.16020022169427706 0.63328100452299474 -0.077993343944622637 -0.13628703625121136 0.096150623944145835
leaf_weight=3830 28307 9215 23542 1627 31106 22111 25986 6229 10869 2282 3798 43516 130825 5543 34967 8076 23558 5362 2847 32294 4521 139948 42574 25122 31686 94968 4475 134388 56670 18918
leaf_count=3830 28307 9215 23542 1627 31106 22111 25986 6229 10869 2282 3798 43516 130825 5543 34967 8076 23558 5362 2847 32294 4521 139948 42574 25122 31686 94968 4475 134388 56670 18918
internal_value=4.95046e-11 0.167371 -0.0672209 0.365485 0.116262 0.142483 -0.0246457 0.308003 0.346187 0.522173 0.563077 0.101371 0.00539894 0.204802 0.0182499 0.416766 0.242581 0.639733 0.512231 -0.119799 0.323073 -0.0526075 -0.043364 0.0296749 0.13941 -0.152904 0.497015 -0.105156 -0.0952839 0.13427
internal_weight=1.00916e+06 289168 719992 59301 229867 176438 397842 43385 34170 15916 14289 106308 191778 70130 165792 23301 45669 10491 5129 322150 10750 206064 182522 53429 62792 98798 12551 223352 191058 24461
internal_count=1009160 289168 719992 59301 229867 176438 397842 43385 34170 15916 14289 106308 191778 70130 165792 23301 45669 10491 5129 322150 10750 206064 182522 53429 62792 98798 12551 223352 191058 24461
is_linear=0
shrinkage=0.05


Tree=26
num_leaves=31
num_cat=0
split_feature=4 4 4 5 5 6 5 5 6 5 3 4 4 7 5 6 4 5 3 5 3 3 5 6 5 6 5 0 5 0
split_gain=4.10579e+06 837907 806116 180874 148299 191357 148109 201059 171768 132039 138019 130340 113963 103592 86941.5 85747.8 81341.2 76520.2 58097.4 57935.2 54332.3 53581.1 60659.2 84121.3 52606.1 62943.4 100996 52116 46266.5 67264.8
threshold=4.3569977883279138 1.8715555307784197 12.003981544938233 7.5000000000000009 18.500000000000004 4.5000000000000009 5.5000000000000009 19.500000000000004 4.5000000000000009 7.5000000000000009 40.770185470581062 1.1105623776003648 2.9450247651551904 3.5000000000000004 11.500000000000002 1.0000000180025095e-35 20.499488885133278 11.500000000000002 40.718591690063484 18.500000000000004 40.703790664672859 40.745611190795906 18.500000000000004 4.5000000000000009 6.5000000000000009 4.5000000000000009 18.500000000000004 -73.897438049316392 13.500000000000002 -73.871059417724595
decision_type=2 2 2 2 2 2 2 2 2 2 2 2 2 2 2 2 2 2 2 2 2 2 2 2 2 2 2 2 2 2
left_child=1 11 3 -2 5 13 -4 8 16 -3 12 -1 21 -5 -10 -15 28 -7 -17 -12 -6 -11 23 -23 -13 26 -26 -20 29 -8
right_child=2 9 6 4 20 17 7 -9 14 10 19 24 -14 15 -16 18 -18 -19 27 -21 -22 22 -24 -25 25 -27 -28 -29 -30 -31
leaf_value=-0.12808729443694056 0.05524401556641028 -0.061707340756600684 0.16336775109409704 0.19798432864577784 0.21890682283758078 -0.044522410237899102 0.25542112421929097 0.23049389638250539 0.027294426036874844 -0.023980023888547235 -0.0058798793676299371 -0.14062821444556348 0.087297302959563783 0.15980348574874592 0.40020637753219063 0.2269407357948342 0.72448608042761276 0.15575728035835598 0.37651697704164039 -0.097648261073990064 0.087036939706411687 0.10900674237830354 -0.030971401887368161 -0.036613891826099886 -0.024515830179590886 -0.11215019515013476 -0.11123199852135893 0.58612538881059417 0.59039279812025336 0.57869976613349683
leaf_weight=202242 43361 60575 6468 26841 9446 6842 3448 9959 2227 58601 48026 26208 80011 5552 5242 4881 5981 15742 13631 26794 45127 37121 20998 13533 114332 54399 47538 3790 7227 3017
leaf_count=202242 43361 60575 6468 26841 9446 6842 3448 9959 2227 58601 48026 26208 80011 5552 5242 4881 5981 15742 13631 26794 45127 37121 20998 13533 114332 54399 47538 3790 7227 3017
internal_value=2.73763e-11 -0.0530611 0.19169 0.143831 0.172963 0.217524 0.384158 0.422649 0.493155 0.005333 0.0195778 -0.0984482 0.0403307 0.268082 0.289017 0.33563 0.570658 0.095081 0.379402 -0.0387433 0.109862 0.0114804 0.0404819 0.0701019 -0.0737271 -0.0656199 -0.0499826 0.422118 0.503462 0.406284
internal_weight=1.00916e+06 790378 218782 175213 131852 77279 43569 37101 27142 345659 285084 444719 210264 54695 7469 27854 19673 22584 22302 74820 54573 130253 71652 50654 242477 216269 161870 17421 13692 6465
internal_count=1009160 790378 218782 175213 131852 77279 43569 37101 27142 345659 285084 444719 210264 54695 7469 27854 19673 22584 22302 74820 54573 130253 71652 50654 242477 216269 161870 17421 13692 6465
is_linear=0
shrinkage=0.05


Tree=27
num_leaves=31
num_cat=0
split_feature=0 3 2 1 2 0 5 5 3 1 1 3 3 1 2 5 5 5 2 7 0 5 1 3 5 1 5 2 5 5
split_gain=1.36032e+06 816516 497765 332177 291321 228571 215765 180590 169881 522064 162601 184028 166488 138449 122515 115813 114862 123059 113199 97590.5 84207.5 82190.7 67538.5 82846.9 63583 63522.1 56575.8 56558.2 56266.6 55404.7
threshold=-73.874469757080064 40.691259384155281 -73.960536956787095 40.726655960083015 -73.92818450927733 -73.975688934326143 18.500000000000004 7.5000000000000009 40.767160415649421 40.752645492553718 40.761472702026374 40.751878738403327 40.752832412719734 40.74109077453614 -73.868190765380845 4.5000000000000009 13.500000000000002 17.500000000000004 -73.967205047607393 3.5000000000000004 -73.967006683349581 12.500000000000002 40.749719619750984 40.726671218872077 18.500000000000004 40.726655960083015 18.500000000000004 -73.92818450927733 19.500000000000004 8.5000000000000018
decision_type=2 2 2 2 2 2 2 2 2 2 2 2 2 2 2 2 2 2 2 2 2 2 2 2 2 2 2 2 2 2
left_child=1 3 6 14 7 21 15 -3 10 24 12 -12 18 -14 -1 -2 -5 -18 22 29 25 -6 -9 -24 -10 -20 -15 -4 -13 -17
right_child=2 4 27 16 5 -7 -8 8 9 -11 11 28 13 26 -16 19 17 -19 20 -21 -22 -23 23 -25 -26 -27 -28 -29 -30 -31
leaf_value=-0.0039134858173538404 0.036633862847403324 -0.07733117157116548 0.15010431790102785 0.23098361028684763 0.13739758718027859 -0.021603910579659037 0.18622688332978732 -0.059266101203761572 0.18583202748646779 -0.088655224628449325 0.11772745941860843 0.017121321337675226 0.12714615729983061 0.027546855870798123 0.54595345718466881 0.69527437257748492 0.71456318081851111 0.3538494786205863 0.041720972792178089 0.61826157808519833 -0.13977737635788959 0.33818637574045973 0.098790359798756347 -0.030408581480143627 0.052555039823398188 0.33003566247535432 -0.065086560494371254 -0.035962987351795914 -0.093965762405650077 0.33767732824805613
leaf_weight=12416 1366 148799 7391 8919 11444 16797 8939 198841 18191 181353 53599 65650 29547 56244 1103 1269 3550 7080 3370 10195 2290 9189 15620 60338 17614 4411 23316 9128 13794 7397
leaf_count=12416 1366 148799 7391 8919 11444 16797 8939 198841 18191 181353 53599 65650 29547 56244 1103 1269 3550 7080 3370 10195 2290 9189 15620 60338 17614 4411 23316 9128 13794 7397
internal_value=1.95583e-11 -0.0126409 0.26659 0.231514 -0.0213185 0.115338 0.390798 -0.0270465 -0.0169921 -0.0542081 -0.00165728 0.0461349 -0.0177963 0.0347235 0.0409495 0.481204 0.363297 0.474314 -0.0379118 0.513402 0.12673 0.22682 -0.0439456 -0.00384012 0.120267 0.205165 0.000399536 0.047288 -0.00216692 0.390042
internal_weight=1.00916e+06 963475 45685 33068 930407 37430 29166 892977 744178 217158 527020 133043 393977 109107 13519 20227 19549 10630 284870 18861 10071 20633 274799 75958 35805 7781 79560 16519 79444 8666
internal_count=1009160 963475 45685 33068 930407 37430 29166 892977 744178 217158 527020 133043 393977 109107 13519 20227 19549 10630 284870 18861 10071 20633 274799 75958 35805 7781 79560 16519 79444 8666
is_linear=0
shrinkage=0.05


Tree=28
num_leaves=31
num_cat=0
split_feature=4 4 4 4 4 4 5 5 5 5 5 5 5 5 2 7 5 5 7 5 5 4 7 5 4 5 5 2 5 5
split_gain=3.46397e+06 876227 518706 168451 159428 107845 101935 85461.2 135384 89474.5 71980.2 70931.5 58195.8 65816.7 55395.8 53896.3 53827.1 54908 53406.2 52406.7 64653 52333.5 49135.3 47970.4 47119.2 42724.6 45412.3 42156.7 35119.3 53363.1
threshold=3.4855310338304029 10.141428809662758 1.4577201053781197 20.499488885133278 5.9678120605648646 2.3901629106597153 6.5000000000000009 6.5000000000000009 18.500000000000004 13.500000000000002 19.500000000000004 6.5000000000000009 6.5000000000000009 17.500000000000004 -73.932689666748033 3.5000000000000004 6.5000000000000009 19.500000000000004 4.5000000000000009 7.5000000000000009 18.500000000000004 0.8114467457678628 3.5000000000000004 14.500000000000002 0.19086238698898611 7.5000000000000009 19.500000000000004 -73.97063827514647 18.500000000000004 13.500000000000002
decision_type=2 2 2 2 2 2 2 2 2 2 2 2 2 2 2 2 2 2 2 2 2 2 2 2 2 2 2 2 2 2
left_child=2 4 21 7 6 19 -2 -3 9 14 22 -6 -5 23 -9 -13 -7 -18 -11 -4 -21 24 -8 27 -1 -23 -27 -14 29 -17
right_child=1 3 5 12 11 16 10 8 -10 18 -12 15 13 -15 -16 28 17 -19 -20 20 -22 25 -24 -25 -26 26 -28 -29 -30 -31
leaf_value=0.035773469807883922 -0.019819950767242217 0.14345264980971459 -0.095780828107605673 0.22525708931656949 0.072761420577618821 -0.061716181535575003 0.077272202867793072 0.37777645992932474 0.18541300597112276 0.39929509931226292 0.033494934348314673 0.13524192734375504 0.69496913147569161 0.35902442650865168 0.15907629814606394 0.19840606347789347 0.043307131824513651 -0.028259311447687327 0.61989113703972265 -0.011977936450055286 -0.072038498090486208 -0.14565628173605652 0.15447242730269561 0.80442770275307918 -0.14310380598610833 -0.070537689913767784 -0.12940598888436697 0.37540192707419889 0.16247347195890013 0.36316109633357341
leaf_weight=3830 25695 9762 37462 1819 19107 21412 40861 6803 13878 7612 38618 31027 1924 3547 5041 11587 97518 36959 4290 138182 66309 32294 41589 2399 94968 149070 41988 2226 12848 8535
leaf_count=3830 25695 9762 37462 1819 19107 21412 40861 6803 13878 7612 38618 31027 1924 3547 5041 11587 97518 36959 4290 138182 66309 32294 41589 2399 94968 149070 41988 2226 12848 8535
internal_value=9.86495e-12 0.146172 -0.0587068 0.317533 0.101965 -0.0205176 0.0706309 0.275276 0.309479 0.381988 0.0898279 0.157301 0.485589 0.532493 0.284694 0.182542 0.0119144 0.0236382 0.478808 -0.0414133 -0.0314534 -0.105869 0.116213 0.626445 -0.136169 -0.0924656 -0.0834749 0.523558 0.227054 0.268289
internal_weight=1.00916e+06 289168 719992 59301 229867 397842 146763 47386 37624 23746 121068 83104 11915 10096 11844 63997 155889 134477 11902 241953 204491 322150 82450 6549 98798 223352 191058 4150 32970 20122
internal_count=1009160 289168 719992 59301 229867 397842 146763 47386 37624 23746 121068 83104 11915 10096 11844 63997 155889 134477 11902 241953 204491 322150 82450 6549 98798 223352 191058 4150 32970 20122
is_linear=0
shrinkage=0.05


Tree=29
num_leaves=31
num_cat=0
split_feature=4 4 4 4 5 6 5 5 5 6 3 5 6 5 3 6 6 6 6 5 3 3 5 3 6 6 6 5 0 5
split_gain=3.12693e+06 833538 433739 203642 121566 102011 112248 99992.9 98196.7 124795 86662.3 96457.7 91852.8 86993.3 90676.6 99609.7 79194.5 72672.9 88378.4 65029.7 61294.4 54223 56324.5 55009.4 52011.6 51367.5 47225.2 47454 72262.4 47018.4
threshold=3.3356161096844223 8.9854833199740209 1.4339046812534488 16.153731132917503 7.5000000000000009 5.5000000000000009 18.500000000000004 5.5000000000000009 19.500000000000004 4.5000000000000009 40.775651931762702 7.5000000000000009 5.5000000000000009 17.500000000000004 40.744138717651374 4.5000000000000009 1.5000000000000002 4.5000000000000009 1.0000000180025095e-35 10.500000000000002 40.842100143432617 40.76587104797364 7.5000000000000009 40.747335433959968 1.5000000000000002 1.0000000180025095e-35 1.5000000000000002 13.500000000000002 -73.86260604858397 17.500000000000004
decision_type=2 2 2 2 2 2 2 2 2 2 2 2 2 2 2 2 2 2 2 2 2 2 2 2 2 2 2 2 2 2
left_child=2 4 21 20 -2 6 17 -5 9 26 11 -4 13 14 -13 25 -8 18 -6 -11 -3 22 -1 -24 -15 -16 -9 28 -28 -29
right_child=1 3 10 7 5 -7 16 8 -10 19 -12 12 -14 24 15 -17 -18 -19 -20 -21 -22 -23 23 -25 -26 -27 27 29 -30 -31
leaf_value=-0.14461027636269294 0.017950127200238281 0.2314011393953547 -0.071965446546793418 0.12384988946903044 0.064718365369110131 0.0062562079389793081 -0.012504324303803955 0.43816834278317218 0.23346370490997992 -0.045849545997034336 -0.073728952694514224 -0.021393571236120342 -0.078713795100932918 -0.078934056443844394 0.0035575399230872249 -0.054195225141346309 0.1070328863043471 0.061948056667595078 0.20707131901758152 0.36491347326512197 0.035022764037711276 -0.13526294310169204 -0.10645827366298484 -0.052549228175500187 -0.0002387987610309647 0.10914115018854265 0.28211383142432184 0.84355256906034271 0.72368211941426075 0.48227151544432023
leaf_weight=37703 52029 46704 55156 3279 13520 22713 19973 5322 5569 1256 68485 43403 32047 29835 14165 14359 45239 16190 56332 4138 4343 86597 88743 101381 70873 61681 1896 3157 1812 1260
leaf_count=37703 52029 46704 55156 3279 13520 22713 19973 5322 5569 1256 68485 43403 32047 29835 14165 14359 45239 16190 56332 4138 4343 86597 88743 101381 70873 61681 1896 3157 1812 1260
internal_value=1.71825e-11 0.133816 -0.0578882 0.273916 0.085006 0.105061 0.119898 0.383097 0.417922 0.472444 -0.0226601 -0.0117822 0.000680014 0.0115386 0.0379887 0.066561 0.0704213 0.157396 0.179519 0.269267 0.214694 -0.101584 -0.088783 -0.077712 -0.0235525 0.0894224 0.553944 0.629779 0.497896 0.740493
internal_weight=1.00916e+06 304732 704428 78736 225996 173967 151254 27689 24410 18841 390004 321519 266363 234316 133608 90205 65212 86042 69852 5394 51047 314424 227827 190124 100708 75846 13447 8125 3708 4417
internal_count=1009160 304732 704428 78736 225996 173967 151254 27689 24410 18841 390004 321519 266363 234316 133608 90205 65212 86042 69852 5394 51047 314424 227827 190124 100708 75846 13447 8125 3708 4417
is_linear=0
shrinkage=0.05


Tree=30
num_leaves=31
num_cat=0
split_feature=4 4 4 4 5 5 3 5 6 4 5 5 6 6 6 5 5 6 7 5 2 3 5 3 7 5 6 5 5 6
split_gain=2.85664e+06 749986 436441 145548 113780 107382 110752 107308 147715 92350.6 90243.6 88622.5 112628 86080.1 89664.1 81983.7 73702.4 78700.9 77858.7 58689.3 52386.4 52043.3 51646 51082.2 49733.9 46821.8 47716.7 46319.1 50552.9 56803.1
threshold=5.0757655727995958 2.1801870810982646 16.153731132917503 1.2579117322763735 6.5000000000000009 7.5000000000000009 40.779600143432624 19.500000000000004 4.5000000000000009 8.9854833199740209 5.5000000000000009 19.500000000000004 4.5000000000000009 5.5000000000000009 1.0000000180025095e-35 12.500000000000002 19.500000000000004 4.5000000000000009 3.5000000000000004 10.500000000000002 -73.967929840087876 40.702114105224616 11.500000000000002 40.742612838745124 4.5000000000000009 1.5000000000000002 3.5000000000000004 8.5000000000000018 19.500000000000004 4.5000000000000009
decision_type=2 2 2 2 2 2 2 2 2 2 2 2 2 2 2 2 2 2 2 2 2 2 2 2 2 2 2 2 2 2
left_child=1 3 4 -1 25 -3 13 8 9 -6 -4 12 -12 14 -7 -10 17 18 -16 -14 27 -9 -19 -20 -11 26 -2 -5 29 -29
right_child=2 5 10 20 7 6 -8 21 15 24 11 -13 19 -15 16 -17 -18 22 23 -21 -22 -23 -24 -25 -26 -27 -28 28 -30 -31
leaf_value=-0.10269793566112168 0.021270269544410692 -0.039183038020831597 0.11765739515047582 -0.084642242835844927 0.19759104507415753 -0.020566982261042119 -0.039923487824334691 0.210049319587719 -0.030624524425319724 0.27230228627334208 0.52624710729416879 0.22179051924048632 -0.043557068291579959 -0.032426826674877521 0.075219844400069902 0.17106353804857052 0.02702204861567848 -0.10389484079878769 0.097424978290558642 0.34666779995825031 -0.092452481654601404 0.072292012209990028 0.063799200661441166 0.21197290631655519 0.43164640842312885 0.013724692396841213 0.20492289880019199 0.0114455133769351 -0.072509913717418578 -0.064260193865152748
leaf_weight=254671 5822 57464 3279 42768 35754 27383 39893 8866 8284 13768 13447 5569 1256 27084 42467 12861 49783 6194 15149 4138 56629 30243 17745 27222 7600 18590 9011 88109 43640 34471
leaf_count=254671 5822 57464 3279 42768 35754 27383 39893 8866 8284 13768 13447 5569 1256 27084 42467 12861 49783 6194 15149 4138 56629 30243 17745 27222 7600 18590 9011 88109 43640 34471
internal_value=3.39046e-11 -0.0389949 0.18148 -0.0756901 0.147977 0.0225163 0.0365345 0.171153 0.204947 0.246739 0.363942 0.397026 0.448822 0.0508526 0.0629829 0.092048 0.0774118 0.100473 0.123065 0.255803 -0.0497952 0.103522 0.0204099 0.171018 0.328977 0.066587 0.132839 -0.0382365 -0.0262964 -0.00984386
internal_weight=1.00916e+06 830672 178488 520288 150799 310384 252920 117376 78267 57122 27689 24410 18841 213027 185943 21145 158560 108777 84838 5394 265617 39109 23939 42371 21368 33423 14833 208988 166220 122580
internal_count=1009160 830672 178488 520288 150799 310384 252920 117376 78267 57122 27689 24410 18841 213027 185943 21145 158560 108777 84838 5394 265617 39109 23939 42371 21368 33423 14833 208988 166220 122580
is_linear=0
shrinkage=0.05


Tree=31
num_leaves=31
num_cat=0
split_feature=0 3 2 1 2 0 5 6 5 6 3 1 1 3 2 2 5 5 1 5 6 5 0 5 3 5 6 2 5 0
split_gain=887327 570675 360412 236048 167898 219994 139974 166144 139684 134257 127272 362990 131773 146024 127415 87410.6 87404.5 99269.5 84773.9 82671.4 89687.5 81413 76518 73619.7 72224.2 66848.9 65742.1 65598.1 51818.1 50319.9
threshold=-73.871059417724595 40.691259384155281 -73.959331512451158 40.72497749328614 -73.932689666748033 -73.975688934326143 6.5000000000000009 5.5000000000000009 17.500000000000004 1.0000000180025095e-35 40.767160415649421 40.753240585327156 40.75866889953614 40.752832412719734 -73.978221893310533 -73.868190765380845 13.500000000000002 17.500000000000004 40.729990005493171 4.5000000000000009 4.5000000000000009 8.5000000000000018 -73.981540679931626 2.5000000000000004 40.734403610229499 12.500000000000002 4.5000000000000009 -73.967205047607393 17.500000000000004 -73.946384429931626
decision_type=2 2 2 2 2 2 2 2 2 2 2 2 2 2 2 2 2 2 2 2 2 2 2 2 2 2 2 2 2 2
left_child=1 3 8 15 6 25 23 9 19 -8 12 28 13 27 22 -1 -5 26 -15 -2 21 -21 24 -3 -14 -6 -18 -11 -12 -7
right_child=2 4 -4 16 5 29 7 -9 -10 10 11 -13 14 18 -16 -17 17 -19 -20 20 -22 -23 -24 -25 -26 -27 -28 -29 -30 -31
